/*This file is automatically generated from a Keras model*/

#ifdef HAVE_CONFIG_H
#include "config.h"
#endif

#include "rnn.h"
#include "rnn_data.h"

static const rnn_weight input_dense_weights[1008] = {
   -10, -16, -6, -1, -19, 10, 5, 15,
   -17, -12, -7, 30, 5, 14, 6, 2,
   -15, 10, -9, -5, -7, 8, 6, 16,
   -2, -6, -30, -50, -23, 7, 8, 28,
   0, 2, 5, 13, 13, 1, 52, 41,
   -5, 16, -7, 10, -30, 0, -4, 31,
   -5, 7, -4, -58, -25, -15, 11, 24,
   3, 6, 48, 10, 14, -19, 71, 36,
   33, 27, -12, 84, -8, 8, -35, 57,
   -6, -47, -8, 25, -26, 5, -24, 28,
   -31, 8, 3, 47, -65, -33, 6, 20,
   47, 3, 15, -20, -78, 12, -83, 71,
   -3, -14, 42, 57, -35, 70, -32, -58,
   -17, -47, 13, -16, -72, 29, -86, -68,
   49, -20, 22, -20, -52, 42, 38, 34,
   8, -25, -1, -28, -2, 77, 28, 5,
   -22, -40, -4, -38, -47, 52, -66, -43,
   41, -8, 21, -25, -26, 17, 98, 20,
   38, -78, -53, -6, -2, 126, 124, -93,
   -74, 40, 83, -99, -36, 47, -72, -117,
   37, -77, -2, 103, 104, -15, 106, -96,
   23, 18, 86, 127, 51, 93, 24, 76,
   -91, 96, 116, -102, -9, 12, -128, -121,
   -2, -112, 76, 127, 120, -28, 38, -87,
   78, -26, 127, 127, 127, 74, 50, -108,
   -79, 121, 124, -13, -52, 117, -51, -83,
   -121, -120, 33, 125, 124, 3, 112, -28,
   7, -113, 127, 82, 113, 66, 120, -30,
   -92, 106, 126, -43, 75, 11, 47, 41,
   -111, -61, -98, 101, 115, 77, 90, 52,
   -101, 27, -57, 124, 127, 59, 121, -123,
   -122, 127, 119, -124, 67, 123, 91, 101,
   -97, -28, -64, -83, 60, 22, 2, -127,
   -103, 115, 6, 127, 61, 118, 4, -110,
   -126, 127, 127, 81, 127, 120, 111, 35,
   60, -98, -30, -127, 120, 7, 81, -114,
   -114, 110, -37, 41, 93, 71, 111, -125,
   -102, 41, 43, 78, 47, -89, 115, 62,
   71, -89, -110, 72, 125, -59, 65, -107,
   -71, 106, 86, -5, 127, 94, 28, -120,
   -110, -56, 98, -21, -113, -107, 28, -6,
   -90, -127, 18, 120, 106, 33, 107, -22,
   111, 124, -32, 46, 70, 120, 98, -128,
   -96, 32, 15, -124, -26, -15, -31, -128,
   -80, -128, -99, -70, 127, -76, 125, -111,
   90, 127, -42, -123, 31, 127, -84, -124,
   -124, 79, -100, 115, -122, -2, -49, -125,
   71, -128, -67, -118, 127, -122, 127, -127,
   6, 115, -108, -116, 119, 109, 59, -128,
   -112, 92, -114, 77, 16, 75, 44, -4,
   122, -127, -113, -90, 110, -44, 102, -38,
   85, 117, 127, 127, 127, 120, 79, -104,
   -102, 116, 32, -16, 88, -4, -126, -127,
   19, -124, 55, 127, 127, 42, 124, 127,
   -109, 124, -29, -89, 34, -32, 18, -90,
   -124, 88, 106, 29, 127, 119, -12, -15,
   -63, 50, 51, -122, 127, -123, 33, 11,
   -127, 118, 103, 64, 127, 34, 102, -113,
   -128, 117, 127, -108, 112, 127, -103, -128,
   94, -112, 120, -106, 71, -24, 36, 44,
   -125, 116, 127, 111, 117, 127, -122, -110,
   -81, 127, 73, 11, 22, 127, -121, -128,
   107, -126, 18, -36, 113, -64, 98, 126,
   -2, 127, 120, 37, 27, -47, -1, 90,
   -104, 47, 125, 74, 125, 127, 127, -100,
   -122, -118, -65, 127, 127, 53, 124, 127,
   18, -34, -123, -82, 111, 104, -128, 25,
   24, 121, -41, 37, -128, 116, 114, 105,
   126, 0, 69, 34, 24, 96, -100, 34,
   -51, -111, -128, -75, 116, -92, -127, 122,
   102, 111, 10, -78, -123, 12, 127, 127,
   107, 44, 6, -60, -1, 48, -127, 116,
   -119, -76, 22, -128, -56, -128, 92, 118,
   84, -57, -25, -74, -109, -109, 127, 116,
   77, 126, 19, -66, 91, 36, 119, 109,
   -121, -101, -128, -114, -128, 80, -108, 7,
   -79, 40, -120, 105, -24, 120, -101, 66,
   -8, 74, 9, 106, -105, 14, -121, 3,
   -117, -58, 14, 51, -54, 67, -92, 56,
   -63, -114, -76, 104, 58, -28, -82, 119,
   52, -59, -72, 66, -10, 120, -34, 41,
   39, -75, 63, 84, -29, -51, 72, 86,
   -98, 11, -5, 123, 123, -117, -57, -127,
   -105, -58, -16, 33, -105, 125, 123, 66,
   127, -43, 36, -48, 31, -31, -120, -5,
   -126, -31, -7, -26, -66, -44, 50, 22,
   -12, -24, -128, 24, -48, -99, -118, 96,
   14, -67, 21, 1, -69, -120, -6, 42,
   -83, -64, -61, 74, -79, 55, 60, -32,
   81, -50, -97, 78, -73, -128, -86, 9,
   -83, -65, 17, -44, -124, -100, 60, 77,
   -43, -4, -39, 3, 1, 50, -53, -36,
   56, 105, 102, 50, -27, -55, -42, -61,
   -52, -83, -7, -122, -115, -59, 27, 73,
   -103, -100, -56, -124, 13, 26, -54, -38,
   85, -55, -127, 70, -52, 25, 41, -20,
   49, -67, -1, -50, 46, -21, -42, 60,
   -44, 3, 30, -120, 83, 127, -89, 70,
   5, -102, -95, -57, -46, 73, -95, 51,
   127, -5, -3, 99, 105, 68, 68, 31,
   -55, 76, -42, -50, 37, 32, 97, 60,
   90, -45, -2, 49, 22, 127, -45, -29,
   -119, -30, 5, -124, -48, -41, -127, 26,
   -17, -114, -68, -15, 67, -91, 108, 102,
   75, 127, 60, -76, -92, 127, -109, -90,
   18, -53, -110, -115, -87, -21, -116, 74,
   97, -127, 38, -9, 16, -61, 111, 103,
   -5, 119, 118, -79, -89, 127, -104, -112,
   112, -68, -100, 120, 95, 43, 2, -57,
   -85, -112, 125, 118, 112, 74, 61, -49,
   -66, 89, 86, 101, 27, -16, 5, 122,
   -72, 30, -97, 115, 51, -7, -107, 55,
   59, -13, 45, 61, -23, 6, -116, -96,
   -81, 104, 124, 91, 56, -93, 6, 101,
   -77, -42, 103, 38, 48, -120, -38, 92,
   -7, -92, 114, 5, -22, -40, -98, -101,
   -19, -54, 127, 111, 28, -85, 118, 110,
   -91, -98, 16, 103, 101, -27, 42, 92,
   -117, 6, 126, -43, 15, 78, -128, -128,
   -93, -121, 44, 127, -1, -120, 127, 120,
   -31, -72, -33, 92, 118, -78, 100, -76,
   -125, -20, 126, 15, 87, -20, -51, -9,
   110, -115, -127, 100, -19, 21, -1, 120,
   -101, 30, 116, -15, 0, -15, -45, -44,
   53, 96, 6, 5, -39, 23, -38, 18,
   48, 7, -6, 3, 11, 25, 6, -13
};

static const rnn_weight input_dense_bias[24] = {
   125, -42, 112, 57, -113, 70, 101, -7,
   42, -75, -60, -106, 39, -120, -24, -14,
   -99, 17, -17, -61, -80, 101, 28, -48
};

static const DenseLayer input_dense = {
   input_dense_bias,
   input_dense_weights,
   42, 24, ACTIVATION_TANH
};

static const rnn_weight vad_gru_weights[1728] = {
   48, 104, -45, 79, -67, -2, -110, 109,
   127, 87, 32, 88, 98, -95, 126, -32,
   8, -13, 68, -67, -72, 99, -128, -11,
   99, -46, -13, 101, -105, -90, 96, 100,
   108, -73, 14, 115, 98, 20, -98, 42,
   -116, 55, 27, -87, 51, 1, 17, -128,
   10, 22, 119, -78, 42, -115, 2, 29,
   91, 17, -101, 66, -34, -18, -12, 56,
   -92, 53, 24, -54, 103, 28, 60, -43,
   -38, 88, -43, 54, -99, -29, 78, 23,
   14, 4, -26, -36, 46, 46, -9, -58,
   -128, 127, 27, 101, 0, 3, 69, 82,
   93, 124, -118, 26, -29, 40, -39, 119,
   86, 33, 34, 69, 94, -127, 105, -33,
   -105, -118, 41, -70, 39, -48, -128, -122,
   -6, 53, -37, -77, -74, -127, -99, 121,
   39, -122, -115, 55, -65, -107, 108, 127,
   101, 57, -40, -96, 123, 21, 99, 110,
   18, 98, -5, 54, 92, 123, 14, 3,
   8, -5, -12, 41, -123, 28, 115, 109,
   -52, 16, 73, 120, -81, -12, -27, 104,
   -90, -46, -54, 37, 46, 70, 40, -48,
   48, 48, -113, -100, 56, 14, -38, 3,
   -35, -128, -20, -4, -67, -33, -12, 8,
   20, 9, 48, 11, -29, 49, -11, 32,
   29, -21, -27, -58, 92, 12, 47, -20,
   -26, 102, -6, -54, -16, -77, 8, -14,
   120, 20, -72, -20, -64, 13, 99, 82,
   82, 120, 58, 75, 125, 67, 116, 61,
   -55, 118, 21, 111, 7, 37, 62, 120,
   126, -55, -128, 90, -38, 80, -24, 103,
   89, 56, -72, 102, 127, -2, 31, 93,
   -113, -72, 3, -18, 115, 50, -95, -116,
   51, 25, 50, 1, 76, -84, -49, 114,
   60, -128, -86, 120, 45, -88, 52, 115,
   -35, 51, -4, -52, 100, 84, -77, -21,
   30, 105, -1, -128, -32, 97, 62, -12,
   42, 127, 30, -50, -91, 12, 42, -71,
   122, 43, -63, -73, -121, -42, -15, -117,
   43, 53, -109, -114, 22, -22, -33, 13,
   -30, 109, 18, -113, 107, 37, 27, -69,
   114, 39, -29, -1, 58, -89, -62, -57,
   -60, -87, 36, -30, 119, -103, -33, 60,
   86, -106, -43, 94, 116, -21, -13, -8,
   -100, -5, -72, -37, -21, 34, -127, 29,
   102, 24, -80, -5, -101, 86, 122, 89,
   -5, 88, -20, 109, 127, 25, 73, 13,
   30, -70, -89, 75, -7, 25, -81, -74,
   11, -11, -58, -36, -111, -13, -32, 36,
   117, 19, -19, -85, 12, 32, 33, -19,
   42, -1, 56, 103, 127, -25, -49, -37,
   -25, 5, 11, -66, 64, -101, 75, 127,
   65, 3, 17, 127, -109, 8, -17, 85,
   -50, -10, 15, -84, 57, 37, 13, 119,
   -10, -16, 75, 14, -118, 32, 116, 26,
   26, 62, 3, -81, 127, 94, 13, 79,
   -60, 64, 36, 91, 15, -37, 35, 54,
   82, 111, -109, 120, -42, 127, -33, 101,
   9, 1, 126, 125, -18, -55, 33, 53,
   -117, -2, 46, -32, -39, 62, -87, -117,
   -35, 93, -62, 21, -21, -88, -39, 56,
   28, -46, -103, 113, -24, -86, 100, 95,
   -110, 27, -3, 64, 127, 73, -50, 39,
   44, -66, 113, 5, 92, -126, 36, -47,
   16, -32, 63, 92, 66, 46, 100, 81,
   80, 17, -8, -57, 127, -35, -127, 1,
   -12, 35, 127, -19, -9, -51, 58, 52,
   -55, -40, 31, -46, -116, 66, -75, 64,
   -30, 120, 78, 117, -116, 61, 109, 71,
   38, -12, 82, 93, -37, 77, 81, -80,
   -44, 88, 9, -112, -119, -4, -29, 55,
   -18, -85, 10, -3, -43, 6, 9, -112,
   -28, 114, -102, -21, 57, -77, -88, -74,
   5, -52, 36, -90, -126, 87, -89, -26,
   -87, -68, -47, -39, -119, -108, -108, -44,
   18, 127, 70, 43, 64, -23, -16, -10,
   -68, 13, -56, -120, -56, -39, -28, -71,
   62, -96, -54, -51, -128, -102, -24, -20,
   -10, -88, 25, 70, -39, 81, -15, -1,
   -59, 59, -85, 8, 12, 7, -2, -14,
   57, -11, -56, 70, -5, -97, 88, -76,
   11, 3, -103, -42, 9, 124, -18, 89,
   89, 98, 7, 41, 38, 57, 127, -19,
   -21, 66, -36, 8, 18, -44, 0, -45,
   58, 97, -67, -111, -113, 76, 59, -109,
   -96, 52, 113, -127, 126, -95, 69, -28,
   49, -89, 121, -33, 61, -82, 23, -102,
   12, -77, 53, 79, 119, 34, 32, 98,
   69, -103, 57, -62, 16, 13, -61, -16,
   57, -37, -22, -65, -72, -29, -75, 82,
   -12, -111, -128, 6, -61, 117, 36, 70,
   127, 110, 22, 7, 127, -26, 31, -38,
   -9, 63, 27, -36, 0, 44, 112, -73,
   -85, 92, -124, 43, -95, 124, -4, 5,
   79, -93, 67, 68, -68, -16, -83, 91,
   19, -112, 57, -112, 1, -32, -58, -49,
   127, 38, -8, 14, 38, -41, -70, 56,
   -67, -13, 62, -7, -35, -13, -16, 28,
   66, -43, 1, -115, 1, 39, -125, 31,
   62, -24, 101, 44, 62, 39, 26, 87,
   45, -30, 20, 26, 82, -33, -54, 48,
   20, -75, -10, 16, 27, 34, 44, 14,
   43, -72, -15, -42, -53, -83, 5, -2,
   -39, 68, -13, 72, -44, 75, 95, 76,
   15, 89, 3, 115, 98, 88, -3, 9,
   54, -21, -49, -20, 31, 61, -37, -24,
   -62, 42, 46, -56, -3, 60, 4, 6,
   -17, -19, -34, 42, -36, 30, -19, -39,
   -21, 103, -3, 28, -9, 116, -67, 49,
   -20, 25, 103, -105, 13, 59, -93, 1,
   -37, -47, 46, 37, 65, 26, 109, -92,
   -2, -1, -66, -27, 55, -56, -93, 112,
   -41, -104, 101, -14, -114, -22, -90, 70,
   26, 45, -15, 50, -100, 43, -115, -128,
   -59, 40, -119, 11, -107, -128, 28, 2,
   41, -4, -84, 7, -52, 86, 93, 25,
   -10, 30, 20, 81, 64, 29, -76, -91,
   109, 14, -102, -107, 7, -70, 42, 58,
   90, 120, -41, 76, 52, 120, -33, 108,
   23, -32, -49, 110, -33, 33, 97, -117,
   8, 85, -79, -124, -36, -86, 3, 1,
   78, 56, -73, 29, 93, -71, 127, -1,
   104, -24, -11, 127, 127, 95, -27, -43,
   43, -25, 1, 2, 121, 2, 83, -22,
   -4, -48, 0, -34, 9, 127, 16, 74,
   94, -38, -13, -111, -2, 93, -97, -47,
   -119, 79, 74, 104, 55, -38, -11, -64,
   -47, -98, 14, -95, -128, 60, -68, -128,
   104, -126, -37, -66, 100, 30, -70, -92,
   -125, 121, 108, -128, 68, -69, -14, -105,
   -98, -43, 127, -83, 51, 90, -40, -79,
   84, 11, 61, -91, -79, 28, 87, 96,
   8, -99, -26, -77, 111, 62, 10, -12,
   0, 53, 92, -115, 84, 11, -112, -84,
   4, 15, -36, 32, -50, -119, -34, -34,
   -111, -93, 67, -61, 2, -101, -82, -111,
   -114, -102, -28, -119, -128, 8, -115, -128,
   43, -124, -20, -120, -91, -40, -20, -81,
   -123, 127, 114, -50, 70, -81, -8, -33,
   -92, 46, 127, -49, 84, -40, -1, -94,
   0, -99, 30, 27, -54, -16, 97, 78,
   -33, -123, 3, -3, 38, 115, -9, 65,
   47, 9, -37, -95, 34, 24, -106, -59,
   -19, 33, -94, 124, -77, -102, -43, 81,
   3, -43, 120, -70, -119, -27, -59, -13,
   62, -48, 22, 38, -128, 3, 33, -45,
   73, 3, -89, -95, 33, -61, 127, -40,
   91, 75, 120, 37, 45, 69, 8, -30,
   -111, 63, -15, -17, 3, -50, -3, -84,
   102, -69, -17, -52, -119, 7, 13, 82,
   -11, -38, 41, 21, 95, 120, -108, -18,
   -56, -40, 31, -6, -17, -72, -55, -13,
   101, -118, -51, -21, 5, 16, -35, 99,
   -5, -16, 35, -46, -30, -108, -128, 21,
   14, -126, -15, 31, -29, -40, -21, -5,
   -109, -71, 29, -58, 119, -24, -111, 65,
   45, 37, 127, 0, -33, 28, -7, 11,
   -112, -113, 44, -57, -128, -121, -9, 43,
   -26, 15, 55, -34, -100, -72, -16, 127,
   3, 11, 37, 108, -53, 71, -30, -48,
   -46, 110, 12, -82, -127, 110, 34, 21,
   125, -107, 64, 19, -66, -39, 87, -30,
   1, -37, -14, -42, -27, -16, -33, -116,
   26, -81, -32, -13, 114, 75, -113, 37,
   -42, -14, -23, -36, 86, -52, -46, 21,
   -77, -83, 6, -29, -68, -38, 39, -19,
   21, -7, -74, -48, -67, -18, -68, -84,
   46, -85, -84, -34, -120, -104, -83, 35,
   -56, -57, 71, 47, -40, -25, -45, -32,
   -72, -36, -27, 19, -59, 9, -8, 6,
   59, -1, -31, -12, -14, 22, 14, 41,
   33, 79, -128, -99, -24, 88, 97, 61,
   -44, 127, 38, 19, -60, 63, 50, 56,
   48, 58, 1, 19, 72, -10, 46, 86,
   14, 110, -73, 88, -17, 64, -6, -81,
   -29, 48, -66, 117, -119, -7, 48, -3,
   -63, -127, 7, -47, -17, 117, -126, -114,
   -8, 65, 10, -14, -60, -96, -10, 96,
   22, 14, -70, 35, 35, -86, -52, 82,
   4, 100, -48, -3, 103, 44, -80, -14,
   -11, 112, 3, -104, 127, 99, 72, 12,
   50, 112, -127, -23, -38, 95, -48, 31,
   -105, 19, -62, 16, -27, 17, 52, -89,
   74, 117, -128, 73, -12, 91, -111, 62,
   97, -50, 72, 36, -19, -96, 108, -38,
   52, -120, -107, 35, 24, -75, -128, -61,
   44, 39, 33, -11, -35, -128, -51, 109,
   34, -122, -7, 44, 88, -100, -52, 117,
   -54, -58, -119, -70, 31, 32, -82, 28,
   122, 39, -65, -85, 81, 59, -107, -121,
   -49, -102, 29, -104, -122, 14, -117, -78,
   -33, -127, -6, -105, -7, -67, 6, -20,
   -53, -87, -7, 74, 75, 80, 94, 73,
   -22, -7, -18, -60, -16, -1, -42, -116,
   96, -119, 17, -93, -4, -115, 91, 57,
   -88, -8, 44, 30, 2, -50, -69, 48,
   -49, -18, -57, 41, 74, 70, 26, 46,
   -9, 23, -96, 26, 18, -72, 16, 91,
   49, 12, -33, -26, 100, 73, 119, -25,
   63, -36, -22, 46, 127, 127, 34, 111,
   -95, 117, 11, 127, 104, -13, 40, 19,
   110, 119, -117, 44, -92, 44, -40, 51,
   60, 12, -40, 112, -68, -70, 122, 115,
   -120, 27, -66, 114, -21, -30, -124, -95,
   1, 18, 4, 2, -120, 40, -32, 58,
   107, 3, -88, 46, -44, -108, 82, 115,
   -73, 66, 32, -24, 103, 21, -38, -38,
   18, 9, 54, 90, -2, 46, 75, -58,
   28, 73, -3, -77, -13, -45, -6, -107,
   107, 12, 13, 126, -34, -46, 77, -89,
   51, -9, -25, 51, -10, 55, 89, -65,
   -20, 26, -87, -25, 18, 120, -127, 26,
   -40, 12, -36, 8, 31, -13, 57, -47,
   12, 18, 34, 54, -4, 119, -48, 20,
   37, 73, -8, -24, 117, 64, -21, -98,
   -48, 97, 15, 89, -13, -69, -128, -46
};

static const rnn_weight vad_gru_recurrent_weights[1728] = {
   102, 110, 14, 36, 45, 37, -77, -2,
   -16, 107, 25, -88, 48, -71, -5, -2,
   87, 81, 109, 55, -19, 87, -9, 112,
   83, 108, -105, 67, -69, 55, 69, 51,
   26, 11, -1, 36, -10, -40, -110, -50,
   47, 17, -92, -30, -70, 5, -96, -53,
   16, 57, -11, 50, 2, -14, -20, 49,
   95, -43, -92, 72, 114, -122, -17, 80,
   -66, 25, 40, -14, 117, 68, -44, -12,
   111, 29, -15, 19, 20, 117, 23, -45,
   100, 104, 29, 72, 28, 44, 81, 26,
   37, 103, 31, 120, 6, 50, 69, 93,
   73, 61, -37, -4, 29, 49, 84, 13,
   -16, 23, 93, -33, -1, 3, -28, -13,
   -55, -33, -24, 29, 11, 11, -107, -61,
   81, 34, 61, 5, 47, 45, -25, 85,
   12, -7, -117, 119, 59, -32, 13, 56,
   -22, -50, 32, -114, 72, 56, -37, 68,
   -7, 26, 82, 41, 35, 3, -19, -128,
   -74, 18, 69, -126, -42, -21, -77, -106,
   23, -41, 56, -21, -105, 73, -28, -4,
   -20, -20, -2, 76, 9, -50, 108, -50,
   -13, 20, -127, -52, -2, -58, 64, 51,
   -7, 1, -59, 0, -103, -60, 6, -45,
   20, -38, 34, 127, 70, 120, 89, -81,
   16, 118, -42, -98, -2, 115, -47, -75,
   81, 43, -5, 111, -4, -34, -44, -27,
   -9, 30, 0, 63, -87, -7, 56, 24,
   102, 44, 96, 16, 96, 25, 69, 62,
   -12, 107, 45, 76, -20, 113, 64, 28,
   47, 111, -26, -67, 123, -29, 116, -41,
   -27, 91, -52, 38, 16, 127, -7, 17,
   64, 16, -23, -34, 31, 18, 54, 2,
   76, 104, -35, 102, -92, -101, 10, 76,
   8, -46, -124, 118, -29, -25, -4, 107,
   20, -16, 5, -44, 61, -13, -31, 107,
   -41, -120, 19, 76, 85, -4, -25, -127,
   -46, 104, 127, -82, 51, 18, -57, -5,
   -22, 57, 95, 51, -128, 63, -91, -65,
   -26, -42, -7, 5, 83, -41, 122, -59,
   73, 102, -44, 2, -68, 101, -17, 10,
   127, 46, 32, 28, -76, -48, 95, 18,
   53, -90, 29, 127, -8, -21, 69, -21,
   30, 99, 17, -4, -75, 64, -25, 9,
   52, -16, -23, -4, -36, 59, -36, 72,
   28, -39, -73, -87, -15, 43, -25, -9,
   -86, -18, 57, -117, -23, 4, -123, 22,
   18, -36, -21, 46, 8, 2, -27, -29,
   -50, -6, 49, -36, 91, -57, 99, 60,
   -79, -89, -63, -27, -30, -37, 99, 81,
   127, 47, 57, -45, -76, 33, 29, 41,
   116, 120, 11, 121, 70, -91, 17, 21,
   10, 94, -16, 127, -93, -38, 31, 71,
   29, -30, -56, 21, 105, -4, 51, 104,
   -16, 16, -83, -47, -128, -120, 16, 24,
   31, -3, 33, -6, 110, 87, -24, 5,
   -66, 89, 89, 2, -8, 38, 60, 1,
   -67, 33, 68, -9, 46, -30, 123, -50,
   -116, 37, -54, -50, -5, 84, 3, 41,
   106, 77, 74, -71, 21, 59, 107, -7,
   -13, 5, -32, 120, -14, 77, 37, -57,
   13, 26, 110, -29, -32, -47, 6, -7,
   10, -15, -84, -2, -32, -94, 31, 10,
   22, -9, 36, -24, -52, -104, -24, -127,
   46, -66, -32, -125, 26, -39, -19, -35,
   -21, -10, -79, -4, -90, -46, 24, -121,
   -40, 100, -5, 17, -4, 18, 92, 31,
   -7, -117, 107, -79, 15, 1, 79, -33,
   -41, 37, -108, -24, -16, -117, -41, 97,
   112, 10, 108, -11, 28, -68, -103, -15,
   36, 5, -97, 101, 29, -31, 92, 56,
   -1, -128, 14, -13, 58, -21, -17, 125,
   53, -45, 59, 90, 11, -71, 53, -25,
   -22, -88, 118, -81, 97, -60, -72, -36,
   -43, 83, -12, -75, 13, 57, -56, 17,
   41, 0, -74, 41, 70, -24, 77, -41,
   -48, -120, 23, 7, 52, -112, -33, 9,
   -48, 47, -69, -92, -14, -104, 18, -26,
   84, -12, 94, -21, -14, -70, -57, 82,
   17, -20, 29, 98, 16, -69, 74, -8,
   -49, -110, 41, -3, 5, 77, 14, -3,
   1, -34, -33, 61, -29, -68, 13, -28,
   -59, 67, 15, 108, -90, 18, 23, 104,
   -29, -28, 69, -35, 0, 5, 53, 20,
   -49, -22, 34, -21, 98, -49, 89, 48,
   87, -25, 4, 36, 20, 43, -59, 11,
   60, 120, 45, -51, -8, 71, 104, 24,
   -50, 12, -62, 104, -49, 117, 32, -124,
   -10, 72, 48, -34, 104, 39, -50, -32,
   -43, 109, -37, -8, -50, -119, 25, -49,
   5, 79, -69, -61, 8, 120, -42, -1,
   27, -51, -7, -102, -114, 87, -25, 127,
   10, 55, -68, -40, 3, -17, 16, 11,
   -18, 121, -56, 124, 23, 52, 73, 26,
   -40, -116, 6, 30, 99, 126, 107, 105,
   126, -17, 102, -127, 90, 70, -4, 14,
   61, 123, 115, 30, 0, -28, 116, 87,
   50, -79, -28, 127, 35, -54, 90, 42,
   119, 69, 12, -8, 70, 8, 106, 120,
   95, -4, 31, 82, -22, 76, 7, 7,
   120, -13, 73, -41, -7, 108, -12, -27,
   -22, 117, 31, 32, -5, -20, 34, 10,
   120, 23, -2, 42, 18, -27, 109, -46,
   -13, -77, 77, -8, -36, 7, 2, -50,
   14, 4, -8, 21, 8, -97, 37, -41,
   70, 109, 60, 33, 18, 10, -60, 46,
   104, -22, -68, 50, 46, -43, 58, 98,
   -7, 10, 59, -87, 127, 33, -74, 85,
   25, 74, -34, 5, 71, -121, 73, 105,
   -49, 19, -117, 87, 120, -45, -68, -127,
   8, -70, -51, -127, -33, -39, -23, -40,
   18, 33, -71, 120, -71, 19, 16, 21,
   61, -121, -55, -91, 35, -123, 36, 35,
   -109, -51, -127, -128, -32, -126, -54, -81,
   104, 24, -108, 87, -12, -93, -97, 117,
   127, -90, -125, 127, 90, -32, 93, 61,
   30, -75, 111, -127, 118, -16, 109, -81,
   11, 71, -54, -14, -77, -118, 22, 34,
   -17, -61, -75, -37, -14, 33, -18, 48,
   8, -104, 33, -103, 49, 64, 76, 69,
   -42, -22, 40, -65, 125, -15, 10, -7,
   28, -90, 4, 44, -82, 119, -45, -9,
   116, -23, 63, -70, 55, 5, 101, 99,
   103, -22, -128, 2, -43, -12, 32, -121,
   -127, 54, 71, -36, -100, -45, -26, -79,
   -46, 8, -103, 75, -29, -53, 28, 18,
   -10, 38, -65, 69, 0, 119, -20, 62,
   20, -41, 52, -83, -26, 1, -83, -128,
   -3, 62, 87, 36, -14, 0, 47, 22,
   69, -9, 19, 95, -22, 38, 19, -118,
   -37, -86, 29, -41, -30, -13, -78, -100,
   -14, -1, -124, -1, -52, -99, -55, -15,
   127, 0, 120, -22, 8, 43, 20, -5,
   -87, -2, -20, 80, 96, -43, 9, -35,
   12, -127, 80, 12, 32, 62, -19, 26,
   68, 26, 1, 3, -7, -77, 31, -86,
   127, 106, 35, 39, -32, 44, 127, -110,
   -60, 114, -13, 110, 125, -13, 63, -107,
   104, 85, 4, 21, -13, -13, 53, 5,
   -54, -85, 126, 10, 0, 34, 57, -64,
   -78, 33, -93, 119, 12, -25, -36, -34,
   86, 26, -14, -15, -65, 32, -63, 36,
   21, -60, 14, 103, -77, -67, 6, -33,
   -101, 93, 98, -63, -18, 87, -27, -5,
   -33, -50, 27, -77, -43, -33, 28, 76,
   -15, 19, 54, -4, 69, -37, -12, -94,
   0, -37, 113, -23, -43, -9, 4, -71,
   -31, 16, -24, -32, 75, -12, -47, 34,
   -5, 49, -21, 98, 30, 44, 18, 7,
   82, 19, 60, -61, -91, -119, -67, 18,
   50, 71, 59, -59, 60, -92, -83, -22,
   -118, 81, 50, 19, -108, 97, 105, 2,
   -105, 95, 14, 99, 20, 33, 15, 55,
   17, 16, 3, -12, 63, -121, -15, 12,
   27, -30, 48, 46, -100, -69, -27, 61,
   -12, 82, 5, 5, 60, 59, -4, -21,
   12, 42, 111, -89, 80, 6, 107, -126,
   -109, -40, -13, 12, 114, -34, -45, -35,
   33, 27, 76, 34, -3, 110, 81, 120,
   10, -73, -28, 21, -42, 119, -19, -79,
   -97, 97, 101, -18, 3, -10, -61, 26,
   -17, 24, 78, -45, -43, 68, 37, -12,
   12, -49, 78, 89, -52, -30, -34, -61,
   58, -77, -74, -12, 119, -110, -54, -4,
   127, -82, 24, -42, -67, 3, 68, -40,
   -16, 52, 82, -30, 119, -30, 51, -52,
   -102, 115, 119, -27, -26, -11, 71, -127,
   7, 100, -54, -40, -77, 13, -19, 38,
   -81, -37, -74, 127, -5, 11, 13, 42,
   -73, -31, 32, -32, 16, 37, -17, 21,
   37, 119, -39, 108, -30, 76, 86, 16,
   67, -52, -36, 39, -41, 66, -2, -49,
   62, -57, 9, -126, -127, 41, -122, -89,
   111, -63, -16, -30, -34, 21, 91, 39,
   58, -80, 95, 11, 30, 22, 56, 74,
   115, -41, 28, 53, -23, 74, -39, 46,
   125, -25, 86, -32, 23, 73, 108, 119,
   32, -30, 111, 101, 57, 60, 79, 14,
   10, 89, 86, -60, -34, 101, -116, -124,
   -5, 99, -8, 15, -103, 110, 100, 101,
   66, 45, -6, 29, -32, -10, -36, -63,
   50, 52, 17, 2, -35, 30, 37, -126,
   -71, 102, 23, 106, 92, 30, 127, -101,
   119, 37, -71, 124, -16, 68, -4, 43,
   -20, -113, 119, -7, -42, 37, 61, -34,
   -26, -13, -82, 22, 53, -21, -71, -36,
   49, 69, 120, -48, 37, 8, -9, 84,
   4, -32, -74, 52, 93, -105, 57, 45,
   16, -9, 82, -17, -24, 39, 45, 24,
   12, -48, -30, 72, -3, -107, -124, -75,
   28, -11, -96, -21, 1, -95, -10, -108,
   51, 92, 24, 59, -49, -53, -16, -18,
   -48, 118, -16, -5, 66, -107, 83, -16,
   -105, -5, 88, -78, -17, -123, 22, -108,
   -81, 29, -127, -21, -67, 14, -51, 10,
   -85, -33, -82, 71, 28, 7, 41, -69,
   -60, 118, -126, -62, -53, -14, -34, 36,
   114, 35, 119, 116, -8, 14, 127, 46,
   88, -21, -6, 16, -32, -6, 84, -47,
   70, 82, 54, 19, -67, 97, 3, 39,
   127, -15, 63, 45, -116, 6, 51, -47,
   -11, -17, 9, -94, 127, -113, 113, -16,
   -52, 16, 31, -9, 59, -20, 94, 21,
   33, 29, 39, 50, 47, -19, 12, 67,
   -86, -61, 4, 87, -12, 127, 13, -102,
   -30, 76, 96, -66, 12, 16, -53, -96,
   -14, 99, -103, 92, -74, -126, 53, -31,
   0, 5, -65, -66, 34, -119, -43, -90,
   -11, 29, 73, -36, 6, 3, 66, 2,
   10, 65, 88, 16, -60, 86, -47, -102,
   33, -7, 13, -55, 54, -56, 23, -78,
   11, 104, -30, -45, -10, 3, -33, 35,
   39, 24, -33, 100, 20, -43, 25, -43,
   -103, -4, -11, 61, 33, 24, 36, -61,
   50, 120, -70, -20, 89, -11, -86, 63,
   36, 107, -2, 52, -52, -10, -34, -20
};

static const rnn_weight vad_gru_bias[72] = {
   79, 29, 0, 121, -38, -121, 107, -37,
   42, 125, 127, -50, 22, -50, 12, 82,
   -4, 17, 124, 33, -15, 127, -79, 120,
   77, -55, 1, 66, 116, 69, 67, 82,
   23, 42, 122, 74, 68, 15, -8, 12,
   90, 43, 18, 86, 67, 19, 75, 14,
   102, 66, 108, 123, 110, -19, 111, -2,
   -23, 101, -5, 80, 54, 35, 87, -7,
   99, 47, 51, 74, 70, 30, 108, 89
};

static const GRULayer vad_gru = {
   vad_gru_bias,
   vad_gru_weights,
   vad_gru_recurrent_weights,
   24, 24, ACTIVATION_RELU
};

static const rnn_weight noise_gru_weights[12960] = {
   10, -90, 34, 8, 88, -34, 12, 16,
   57, 28, 64, 24, -4, -8, -21, 43,
   -6, 1, -8, 79, -14, 8, 54, 49,
   37, 21, -41, 33, -73, 24, 37, -1,
   -29, 58, 12, 67, 1, -10, 30, -7,
   28, 30, 94, 27, 61, 16, -17, -37,
   88, 12, -50, 46, -82, -68, 25, -17,
   28, -8, 32, -51, -59, -4, -1, -36,
   33, 77, -70, -19, -2, 49, 29, -14,
   44, -70, 9, -27, -5, -6, 11, -25,
   1, 12, -19, -27, -33, 47, 15, 41,
   -8, 66, -3, 46, -19, 4, 38, -50,
   8, -5, -83, 12, 15, 10, -33, -18,
   -4, 3, -9, 17, 36, -2, 21, -46,
   -8, -27, 2, 10, -15, 4, -9, -1,
   -5, 5, -22, -2, -1, -28, -29, 18,
   1, 4, 8, 13, 53, 30, -7, 18,
   54, 16, 30, 6, 23, 18, -9, 65,
   29, -48, 31, -1, -2, 2, -9, 18,
   -7, 6, -24, 13, 5, -7, 1, 17,
   17, 4, 4, -69, 27, 23, -23, 5,
   8, -60, 15, 38, 48, -10, 34, 2,
   11, 26, -2, -29, 7, 4, -23, 37,
   7, 16, -71, 41, -12, -7, -36, -20,
   27, 15, 19, 17, -29, 11, -32, 37,
   -46, 9, -33, 13, -33, -20, 19, -34,
   -7, 39, 16, 31, -16, -69, 34, 2,
   -15, -29, 4, -13, -35, 9, 33, 6,
   28, -56, 14, 7, 5, -17, -99, 38,
   40, 7, 53, 3, 9, -47, -14, 10,
   35, 1, -7, -7, 17, 15, 6, -11,
   14, 4, 7, 17, -4, 2, 20, -2,
   9, -1, 5, 25, 11, 8, -10, 1,
   -38, -25, 14, 1, 10, 8, 16, 6,
   -15, -3, 5, 12, 19, -4, -1, 1,
   0, -16, -22, -6, -3, -6, 2, 4,
   -8, -13, -73, 34, -2, -2, 15, 48,
   0, 1, -11, -5, -42, -2, -9, -5,
   16, -1, -6, -30, 16, 11, 74, -36,
   -68, -77, 34, 12, 96, 10, -49, 16,
   28, -2, 14, 20, -9, -35, -20, -43,
   -43, 2, 38, -16, 26, -52, -87, 26,
   20, -8, 12, 11, -4, 22, -9, -40,
   67, 22, 17, 60, -27, 11, -20, -13,
   50, -72, 47, -63, 5, -21, 22, -35,
   22, -27, -41, -32, -69, 12, 27, -4,
   5, 8, -35, 8, -32, -59, -30, -24,
   42, 15, 44, 33, -15, 23, 43, -1,
   9, -4, 60, 15, 35, 6, 14, 4,
   -30, 2, 2, 8, -8, -2, 8, 14,
   6, 17, 14, -7, 15, 12, 4, -15,
   16, 8, -1, 1, 13, 0, 14, 1,
   7, 20, -5, -22, -47, -24, -21, -19,
   -1, 44, -16, 11, 43, 5, -1, 20,
   37, -18, -54, -64, 70, 36, -12, 13,
   15, 23, 42, 4, 35, 2, -9, 94,
   -19, 74, 43, -27, 80, 19, -128, 91,
   -4, -25, -16, 6, 71, 33, 124, -12,
   -13, 21, -38, -12, -16, -7, 34, 0,
   -88, 16, -49, 59, 36, 18, 28, -60,
   19, 9, 43, 15, -27, -47, -18, 43,
   -16, -13, 18, -37, -40, -48, 33, 7,
   9, 19, 22, -34, -127, -87, -10, -18,
   84, 28, 34, -47, 34, 10, 46, 41,
   -4, -77, -38, -48, -6, 55, -3, 67,
   -3, 127, -15, 15, -57, 69, 59, 37,
   18, 29, -18, 1, -27, -33, -4, -26,
   9, -12, -20, 74, -26, -1, 19, 4,
   48, -14, -8, -23, 24, 29, -12, -25,
   -21, -32, -5, 30, 18, -37, 21, 54,
   -3, 12, 10, -13, 45, 2, 12, 8,
   22, 40, -10, 13, 55, -50, 5, 64,
   -24, -12, 0, 58, 18, 0, -17, -38,
   14, 22, 5, 9, -9, 21, 21, 21,
   -26, 28, 1, -23, 0, -14, 51, 61,
   14, 40, -3, 2, -30, 4, -1, 29,
   40, 25, 10, 54, 2, 8, -38, -19,
   7, 3, 38, -42, -18, 36, 40, -1,
   39, -69, -35, 43, 28, 61, -17, 5,
   -6, 13, -23, 29, -16, 53, -25, -16,
   -6, -8, 17, -3, -30, -22, -48, 17,
   21, -5, -25, -33, -8, 27, 60, 25,
   1, 36, -14, -1, -6, -9, -19, 15,
   9, 5, 9, 0, 1, 14, 16, -6,
   40, -12, -28, -4, -22, 4, 9, -5,
   8, 0, 3, 3, -17, 10, -4, 1,
   -24, -4, 21, 13, 2, -15, 2, -5,
   -15, 19, -7, 2, 3, 5, -15, 8,
   17, 17, 2, -3, -26, 55, -14, 6,
   -5, -7, 15, -15, 8, 7, -11, -3,
   1, -3, -14, 36, -8, -6, 15, 30,
   25, 35, 26, 26, -12, -20, -5, 58,
   5, -3, 16, 28, 19, -12, 67, 72,
   51, 13, -4, -13, -30, 3, 45, 17,
   28, 15, 5, 41, -3, 2, -29, 20,
   -22, -12, 12, -21, 1, 7, -40, -25,
   55, 20, 76, 40, 57, -65, -11, 36,
   51, 33, 13, 11, -83, -5, -29, 34,
   -78, 34, 36, -43, -26, 73, -48, -26,
   -27, 13, 21, 1, 33, -16, 115, 15,
   -28, -8, 50, -15, -5, 25, 33, 11,
   -13, 54, 5, -25, -23, -46, 11, 17,
   15, 1, -41, 6, 9, 3, -7, 4,
   15, -2, -6, -3, -19, 1, 12, -32,
   -23, -18, -4, 5, -5, -17, 6, 1,
   8, -12, -12, 1, -8, -6, -10, -5,
   18, -18, -32, 10, 21, 52, 2, 8,
   15, -7, 0, 11, -16, -6, 16, -14,
   -2, 18, -88, 35, 112, -49, -13, 34,
   65, -26, 76, 13, 29, 34, 30, -27,
   16, -20, -40, 24, -21, 21, -24, -9,
   55, -14, 27, 68, 65, -33, 79, 11,
   39, -26, 15, -41, -21, -51, 79, 79,
   26, 49, 5, 28, -14, 47, -74, 101,
   -12, 7, 90, -24, -12, -18, 5, 10,
   2, -7, 32, 83, 26, 33, 45, -60,
   -91, -25, -100, 29, -4, -76, 79, -12,
   4, 21, -17, 40, 32, 76, 83, 46,
   -23, 2, -12, 16, -4, 73, 52, -17,
   54, -16, 96, -11, 19, -40, 103, -62,
   19, -2, 113, 13, 41, 11, 18, 5,
   14, -4, -40, 3, 8, 25, -11, 6,
   21, -21, 26, -92, 8, 78, -9, -12,
   44, -39, -15, -32, 21, -22, -45, 13,
   4, -6, 19, 13, 46, 15, -33, 51,
   -35, -37, -39, 19, -28, 22, -22, 7,
   5, -36, 23, -7, -12, -13, -11, -7,
   -4, -9, -7, -3, 0, 3, 15, 14,
   4, -33, 1, -9, 17, -15, -13, -53,
   0, 16, 13, 11, 8, -1, -64, -2,
   8, 11, -18, 7, -5, -3, -13, 14,
   -13, 6, 18, 27, -29, -43, 14, -3,
   -29, 17, 11, -17, 53, 3, 3, -29,
   -29, -24, -67, -56, -10, 11, -42, 1,
   11, -4, -33, -10, -22, 11, -20, 25,
   11, 18, -37, 31, 13, 14, 20, 21,
   9, 1, 32, 7, 14, -2, -3, -13,
   26, 2, 20, 36, 36, -4, 7, -54,
   -13, 0, -10, -14, -12, -4, 12, 4,
   3, -1, -4, -12, 7, 1, 9, -6,
   -21, -4, 2, -19, 0, -3, 1, 5,
   6, -2, -7, -2, -4, 3, 12, -6,
   6, -2, -6, -5, 25, 8, -2, -2,
   -3, -8, 9, -12, -5, 0, -3, -11,
   -46, 27, 1, 18, 4, 11, -9, -13,
   0, -25, 9, -34, -7, 6, -10, -14,
   -5, 16, -26, -38, -14, 4, -86, 6,
   -6, -21, -9, -26, 8, -20, 38, -17,
   18, 17, 2, 8, 5, -18, 24, 12,
   -4, -15, -33, -2, -49, 25, -82, -1,
   46, -24, -22, 25, 62, 13, 17, -12,
   33, 5, 54, -22, 76, 0, 45, 27,
   -22, 13, -46, -69, 6, 21, 24, -2,
   52, -2, 12, 47, 14, -31, -28, -8,
   -34, 30, 11, -11, -55, -27, 73, -29,
   -14, 22, 19, 4, -1, 16, -28, -57,
   -33, 1, 2, 7, -21, -20, -4, -8,
   1, -8, -1, -18, -15, -4, -14, 3,
   2, 10, 25, 2, -6, 16, 17, -11,
   24, 11, 2, -4, 5, -11, 17, -3,
   13, -4, 19, 17, 9, 21, 13, 16,
   -7, 16, -13, -10, 6, 12, -1, -5,
   15, -10, 17, -16, -18, 13, 1, -34,
   12, 15, 19, -23, -24, -14, -21, 35,
   5, 30, -9, 15, 14, -4, 106, 10,
   -46, 29, 2, -28, -60, 7, -45, -1,
   -5, -25, -11, 16, 8, -7, -5, -8,
   -11, 15, 5, 11, 2, 29, -22, -29,
   -55, -11, 56, -82, 91, -3, 20, -36,
   27, -36, -72, 21, -51, 24, -32, 9,
   -46, 32, 17, -20, -26, 56, -10, -17,
   -4, -1, 46, -2, 29, 16, 37, 14,
   33, 0, -20, -40, 33, -42, 6, 25,
   3, 11, -54, 33, 27, -4, -35, 16,
   -21, 4, -32, -14, 12, 2, 23, 5,
   -16, -6, -7, -15, 7, -6, 13, 3,
   -3, 3, -6, 15, -14, 11, -1, 27,
   -3, -21, -35, -3, -5, 17, 7, -22,
   -9, 7, -51, -41, -42, -23, 15, 4,
   6, -19, 13, -14, -2, -7, 0, -22,
   -60, -17, -4, -38, 2, 24, -17, -7,
   -26, -11, 12, 25, 45, -6, 2, -36,
   7, 44, 16, -31, 39, 10, 45, 29,
   22, -4, -47, 22, -55, -8, 27, -2,
   -19, -28, 22, 45, -27, 19, 23, -15,
   -34, -3, 5, 15, -6, -4, -89, -38,
   27, -13, -45, -31, -53, 29, 12, -23,
   39, 16, -23, -17, -103, 9, 11, -7,
   -8, -29, 54, -4, -45, 42, 12, 4,
   20, 73, -20, 21, -8, -15, 3, 30,
   5, -28, 44, -10, 4, 1, -3, 26,
   -45, 3, 5, 24, -37, -76, 17, -21,
   19, -15, -18, -16, 2, 8, 2, 4,
   -7, 1, -4, -5, 3, 5, -2, 2,
   -3, -5, 48, -1, 17, 16, -9, 22,
   -13, -13, -34, -8, -18, -26, 9, -2,
   -1, -13, -9, 2, 14, -15, -2, 13,
   -9, 7, -7, -24, 15, -13, -12, 6,
   -35, 20, 21, -16, 13, 28, 14, 9,
   -13, 20, -31, -12, 4, 1, -18, -1,
   -3, -5, -15, -19, -7, -4, 17, -19,
   -2, -2, -8, 3, -24, -5, -33, -2,
   -6, -8, -6, 21, 14, 13, -19, 5,
   15, 20, -46, -18, -6, -25, 25, 10,
   -91, -3, 5, -28, -54, 49, -2, 20,
   -2, 28, -42, 18, -27, -25, 5, -12,
   32, -4, -13, 18, 10, -11, -4, 44,
   -41, 17, 16, -24, 8, 14, -28, -22,
   21, 39, -17, -26, 12, -30, -27, -11,
   20, 2, 12, 21, 4, -1, -27, 21,
   -9, -8, 12, -4, -34, -6, -1, -15,
   -8, -9, 13, -10, 0, -11, -15, 2,
   -9, 11, -6, -4, -6, -5, -10, -9,
   -15, -8, 8, -1, -7, 16, -1, -10,
   -4, 2, -2, -13, -18, 0, 2, 0,
   5, 14, 3, -5, -9, -20, 2, -3,
   31, -58, -74, -10, -52, -20, -12, -37,
   -5, -66, 79, 31, 33, 54, -28, -111,
   3, 12, -14, -21, -1, 8, -75, -124,
   43, 11, -13, 11, 31, 54, -45, -1,
   36, -30, 9, 28, 46, 39, -58, 100,
   46, 12, 24, -27, -59, -37, -82, -22,
   -43, 72, -63, -36, -11, -49, 80, -52,
   -66, -43, 93, 50, -5, -38, -14, -83,
   17, -88, 18, 7, 3, 115, 92, 8,
   -67, -91, -1, 27, -67, 37, -25, 11,
   91, -7, -57, -31, 13, -39, -34, -30,
   36, -17, -32, 122, -115, -11, 25, 23,
   3, 0, 94, -1, -7, 0, 40, 2,
   17, 8, -18, 23, 43, -1, -28, 3,
   -26, 22, 47, -16, -24, 33, 14, 1,
   44, 22, 34, -35, 6, 21, -36, -5,
   -3, -3, 20, -21, -2, 31, -11, 22,
   -11, -45, 1, 26, -6, -40, 0, -44,
   22, 63, -11, -42, 45, 1, 26, -58,
   9, 81, 3, -4, 57, 31, -41, -56,
   15, -18, 6, 25, 31, -13, 91, -14,
   -1, 44, 26, -2, -75, 21, -85, 19,
   41, 48, -29, 114, 20, 8, -93, -26,
   5, -14, 1, -1, -32, -17, 19, -34,
   -70, -84, 59, -29, 55, 29, 2, 21,
   -51, 17, -14, -23, -11, 9, -32, 60,
   -27, 2, -5, -16, -40, -34, -26, 76,
   1, -20, 43, -2, 82, 76, 4, 97,
   17, -48, -17, -27, 46, -42, 50, 14,
   -34, -5, -29, -61, 16, 29, -47, 37,
   -50, -15, -62, 9, 13, 61, 16, -30,
   -12, -33, -4, -2, 7, 0, -36, 2,
   -22, -11, 21, 36, -16, -47, -10, 36,
   -24, 6, 7, 9, -35, 14, 11, 1,
   -29, 1, -12, -4, -27, 39, 8, 6,
   -7, 2, 19, -18, -4, 13, 13, -27,
   23, 33, 93, 22, -50, 37, -25, -10,
   -13, 55, -9, -1, -7, -14, 35, 21,
   50, -26, -34, -8, 24, -15, 97, -28,
   3, 71, -3, 5, -83, -24, -124, 15,
   -50, -52, 35, 27, 7, 38, 19, -33,
   59, -14, 109, 45, -41, -4, 80, -2,
   -17, 36, -40, -31, 80, 14, 110, -86,
   -90, 8, 62, -42, -6, -11, 22, 127,
   -19, 64, 2, 44, -16, -1, 4, 40,
   15, 2, -30, -37, 0, -41, 19, 15,
   -19, -17, 34, -35, 52, 7, 24, 17,
   -48, -91, -3, 21, -17, -12, 12, 18,
   1, 10, 7, -8, 17, 51, 8, 21,
   -27, 19, -40, -44, -14, 28, -59, -7,
   -10, -4, 9, 7, 10, 8, -2, 19,
   13, 30, -16, 21, -3, -5, 6, -10,
   20, -21, 3, -27, -29, 9, 24, 5,
   16, -12, 34, -30, 3, -36, -7, -21,
   24, 55, -51, -66, 9, 24, 16, -4,
   14, -44, -34, -3, 15, 11, -11, 27,
   -12, -27, -52, -31, 4, -11, 127, -6,
   -31, 7, -43, 9, 8, 20, 66, -5,
   -7, 5, 32, -63, 10, -9, -33, 0,
   -88, 8, 71, -38, 59, -27, -20, -34,
   -68, 33, -7, -32, 63, -45, -52, -47,
   -31, 9, 8, 21, -38, -13, 21, -43,
   -19, -7, 14, 63, 14, 3, 67, 4,
   -30, 42, -5, 14, -43, 32, -23, 0,
   -19, 12, 24, 23, -25, -50, -65, 20,
   83, -8, 27, 1, -44, 30, -1, -18,
   -7, 17, 26, -5, -14, -19, 4, -10,
   21, 0, 8, 2, -22, -33, -39, -9,
   11, -3, 40, -13, 6, 33, -3, -26,
   32, -24, -8, 7, 1, 4, -21, -3,
   56, -2, 19, -14, -10, -12, -8, 5,
   -52, 34, -14, -19, 27, 12, -9, -9,
   8, 31, 12, -9, 8, -2, 29, -17,
   18, 28, 18, 14, 11, 11, -33, -10,
   -3, -24, -8, 14, 10, -23, 23, -40,
   -45, -8, -6, -30, 60, -28, -12, -18,
   17, -22, -3, 2, -14, 35, 1, 3,
   12, 15, -25, 34, -22, 17, 44, 16,
   47, 14, -21, 10, 65, -25, 8, 30,
   -2, -11, 7, -39, 15, -34, 11, 32,
   24, -11, 6, 10, 30, -36, -35, 8,
   -64, 7, -3, 24, 8, 16, -36, -35,
   22, -41, 4, -27, 10, 11, -25, -9,
   18, -15, -14, 5, 5, 42, -32, 66,
   -1, 6, 6, 0, 15, -20, -3, -4,
   6, 10, -1, -12, -6, -16, -10, -6,
   2, -8, -7, -3, 10, -12, -2, 13,
   -46, 3, 17, -9, -8, 9, 14, -11,
   -5, -20, 1, -3, -11, -9, 18, 17,
   14, 3, -14, 8, -24, 3, 10, -5,
   -39, 26, 11, 6, -31, -2, -19, 52,
   9, -59, 4, 6, -23, 8, 4, -45,
   7, -4, -10, 38, -5, 10, -18, -61,
   -38, -23, -39, -23, -30, 19, -21, -21,
   -29, -16, 16, 62, -13, -26, -11, -37,
   8, -14, -42, -22, -15, 41, -50, -27,
   15, 6, -23, 14, 2, 0, 40, 13,
   15, -40, 62, -12, 63, -2, 30, 33,
   -17, 26, -9, 41, 13, 6, 21, 18,
   19, 46, 17, 18, 29, -10, -23, 12,
   -14, -47, -27, -28, -22, 77, -28, -52,
   -3, 10, -25, -13, 13, -24, -34, -26,
   -39, -7, 32, 0, 10, -28, -8, 23,
   35, 18, -10, -27, 9, 7, 29, -8,
   6, -5, 10, 36, 4, 8, -3, -7,
   -3, 49, 17, -4, 9, 5, 10, -9,
   34, -2, -17, 15, -15, -39, -11, 53,
   -14, -10, 3, -33, -14, 34, -4, -24,
   -5, -5, -23, -13, 47, -16, 14, -32,
   8, 41, -9, -38, 10, 13, -24, -9,
   10, 23, -15, 15, 8, -6, 27, 11,
   51, 20, 36, 1, 25, -7, -58, 0,
   9, -44, 20, -21, -21, -3, -16, -38,
   -1, 5, -28, 26, 3, 81, 69, 11,
   13, 5, -28, -27, -1, 4, -24, -41,
   -32, -24, 31, 32, 58, 8, 4, 35,
   0, -35, 20, -57, -37, 38, -69, -18,
   -29, -52, -20, -21, -14, -7, -55, -11,
   12, 8, -9, 30, 2, 1, -17, 24,
   13, -21, 28, -21, 36, 14, 20, 1,
   -33, -7, 11, 1, -10, -20, 2, 8,
   44, 22, 3, -8, 8, -5, 22, -5,
   6, -5, -47, -29, 38, 12, -6, -18,
   -23, 16, -11, -8, 2, 3, -11, -7,
   37, 8, 5, -18, -4, 32, -21, -4,
   -21, 9, -18, 21, 3, 26, -1, -3,
   -2, -26, 13, -61, -26, 56, -9, 2,
   0, -25, 4, 1, -12, 26, -27, 11,
   -3, 42, -42, -69, 12, -5, 108, -10,
   -52, 10, 0, -22, 56, -22, -69, -11,
   -8, 10, 1, 32, 12, -5, -21, 12,
   -7, -69, 9, -53, -16, -29, 38, -15,
   20, 29, 47, -24, -4, 19, -33, 27,
   25, -10, -14, -2, -16, 7, 0, 64,
   39, -15, -16, -40, 7, 9, 18, 6,
   -10, 10, 0, 26, 3, 0, -73, -25,
   14, 11, 62, -6, -2, 31, -15, -6,
   21, -38, 39, 0, 19, 67, 10, 15,
   2, 9, -8, 9, -8, -3, 0, -1,
   0, 6, 6, 9, -15, 3, -11, 7,
   7, -3, -28, 14, -1, -8, 15, -8,
   51, 13, 16, -19, 14, -2, 13, -8,
   -3, 8, 6, 15, -26, 15, 6, -10,
   -8, 9, 9, 1, 13, 4, 1, -2,
   18, -40, -3, -9, -22, -8, 25, 28,
   27, 31, -7, 10, 41, 16, -39, -29,
   17, -17, 1, 6, 10, -5, 62, 27,
   56, 46, 9, 16, 33, -2, -69, -15,
   15, -26, 25, 62, 63, -6, -13, -7,
   -56, -38, 32, -30, 42, 31, 25, -4,
   -38, -52, 11, 38, -24, 16, -53, 16,
   -49, 14, -38, 58, -57, 32, 10, 5,
   7, -26, -6, -10, -45, -5, 15, -61,
   -47, -22, -2, 45, 24, 22, 36, 2,
   31, -25, 6, 14, 27, -7, 23, -18,
   96, 20, 25, 23, 22, 23, 8, 41,
   -7, 5, -17, 11, -21, 11, -33, 7,
   -16, -21, 0, -5, 10, -5, 4, 8,
   10, -24, 16, 10, 12, -29, 2, 28,
   -2, -4, -19, -2, 0, -7, 7, 0,
   -20, 4, 2, 9, -9, 0, -21, -11,
   14, -15, 27, 16, 13, 16, -2, -8,
   -7, 3, 43, -8, 2, 19, -3, -73,
   -3, -33, -55, -13, -34, -4, 7, -2,
   7, 31, 2, -46, -2, 0, -26, 34,
   -7, 51, 3, -76, -22, 6, 33, 18,
   2, 7, -39, 48, -56, 28, 6, 38,
   -53, 38, 39, 16, -4, 76, 38, 4,
   2, -33, 10, -8, 79, 32, 3, -59,
   15, -53, 52, -8, 54, 32, 33, -36,
   -53, -22, 30, -44, -1, 114, -42, 29,
   -7, 21, -7, 22, -30, -26, -76, 40,
   -46, -9, 18, 51, 16, 27, 48, 1,
   3, 19, -2, 37, 52, 72, 8, -67,
   23, 3, -28, -25, -39, -11, 29, -3,
   -7, 22, -12, 7, 10, 24, 7, 12,
   -8, -3, 8, -1, -5, -4, 13, -4,
   48, 17, 27, -2, -7, 9, 18, 0,
   18, 16, -5, 6, -8, -9, 22, 16,
   12, -13, 22, -9, -5, 35, -1, -5,
   102, 47, -35, -10, 32, -4, 1, 50,
   6, 24, 28, -13, -2, 26, -32, -12,
   34, -38, -31, -32, -28, 5, -17, 107,
   -10, 5, 15, -26, 58, -48, 17, 21,
   -26, -20, 6, -6, 32, 31, 27, 13,
   -47, -50, -66, 13, 54, 62, -55, 39,
   3, -27, 0, 55, 20, -6, -50, 2,
   -7, -28, 66, 72, 11, 17, 9, 17,
   6, 16, -8, 76, -39, 6, 29, 53,
   26, 4, -63, 49, -7, 72, 53, -44,
   -5, 22, -15, 37, -10, 29, 5, -8,
   49, 39, 11, 13, 3, 42, 7, 7,
   21, 20, 8, -14, 36, -43, -21, 15,
   4, -6, 5, 20, -3, -2, 15, 1,
   0, -6, 22, 56, -8, 25, -3, 31,
   -9, -21, -25, 6, 7, 24, -8, -1,
   17, -1, -3, -2, 48, 56, 0, -53,
   8, -11, -6, 17, 15, 8, 12, 48,
   19, 38, 4, 23, 18, -18, -6, 26,
   -29, 41, 17, 18, -34, -4, 16, 26,
   33, 25, -18, 13, -30, 1, 6, -12,
   -14, -8, 19, -12, -12, 23, 25, -5,
   -2, -33, 25, -25, 31, 3, -5, -16,
   -14, 34, -86, 55, 23, 53, -16, 17,
   -38, 0, 12, 23, 122, -7, 30, -3,
   -4, -13, 23, 1, -24, 25, 17, 21,
   13, -41, -13, 55, -28, 13, 68, -47,
   39, 6, 6, 4, -18, -36, -13, 0,
   -4, 12, -21, 24, -23, -12, -9, 41,
   20, -40, -12, 20, 5, 4, -23, -7,
   15, 8, -32, -5, 17, -27, -17, -2,
   -6, 5, -8, 3, 13, 8, 4, 4,
   -1, 0, -34, 16, -5, 8, -13, 4,
   -18, 5, -9, 19, 2, 0, 4, -2,
   6, -5, 12, -10, -9, -10, -21, -21,
   -2, 9, 11, -21, -1, 16, -8, -21,
   11, -31, 40, 28, -2, 12, 14, -20,
   21, -15, 5, -19, -6, 9, 29, 15,
   30, -24, -9, -25, 28, 15, 74, 24,
   37, -12, 4, -45, -56, 19, 26, 11,
   14, -10, 8, -56, 3, 24, 19, 45,
   -32, 62, 2, 35, 9, 6, 6, 38,
   -16, -30, -20, -3, 67, -11, -3, -1,
   31, -6, -8, -48, 10, -10, 4, -7,
   16, -38, -33, -55, -28, 21, -45, -48,
   5, -1, -2, -12, -7, -25, -9, -4,
   -35, -44, 32, -16, -20, 10, 34, 12,
   30, 31, 7, 20, 10, -6, -15, -49,
   -15, 41, 7, 16, -11, -25, 5, -1,
   -14, -20, 7, 4, -11, 30, -3, 12,
   -5, 7, 33, -27, -5, -17, 13, 11,
   17, -13, 8, 16, 14, -29, -4, 15,
   8, 16, 4, 3, 15, -20, 8, -10,
   8, 0, 0, -8, -4, 26, -6, -16,
   -3, 34, -2, 24, 3, 3, -4, -3,
   -8, -15, 0, -7, 23, 1, 22, 8,
   7, -10, 10, -30, 6, -3, -16, 22,
   7, 8, -1, 13, 12, 2, -10, 17,
   20, -22, 2, -34, 22, 9, -2, 4,
   13, -2, -3, 1, -14, -8, 19, -40,
   -3, -6, -16, 11, -4, 6, -2, -2,
   -9, 15, -12, -10, -18, 5, -2, 4,
   6, 12, 15, 29, 11, -13, 4, -4,
   5, -16, 5, 1, -3, 3, 5, 8,
   14, 4, -1, 26, -1, -19, 7, 6,
   5, -28, -1, -16, -27, 1, -1, 19,
   24, 1, -13, -5, 15, -7, -6, 2,
   -7, 0, 5, -2, -2, -1, 6, -2,
   -8, -2, 9, 11, 15, -6, -6, 11,
   12, 8, -16, -6, 5, -4, -7, -8,
   -4, -5, 6, 14, -19, -5, 5, 5,
   3, -6, -18, -3, 0, -12, 6, -8,
   -3, -55, 7, -21, 10, -6, 19, 6,
   6, 4, -10, 9, -6, -12, 2, 4,
   -12, 16, 1, 31, -16, -8, -12, 3,
   -6, -26, 5, -2, 44, -7, 23, -10,
   -12, 8, 0, 2, 17, 24, 15, -7,
   -1, 5, -18, -14, 20, -14, 2, -14,
   -18, 8, 27, -4, -29, 5, -3, 8,
   29, 7, 4, -12, 4, -14, -15, -1,
   -9, 1, -16, 5, 24, -7, -36, 1,
   23, 4, 6, -4, -17, -36, -2, 4,
   22, -10, -7, 12, 5, 11, 18, 13,
   1, 2, 8, 38, 4, -18, -5, 15,
   1, -3, 3, 4, -22, 17, 0, 5,
   -11, -2, 0, 2, 1, -5, -2, -5,
   2, -2, -30, 4, -16, -6, -9, -6,
   -7, 0, 0, 8, 8, -6, 8, 2,
   -19, -6, 2, 2, -11, 1, -1, -8,
   1, -8, -13, 9, -11, 2, 4, 10,
   10, -7, 24, 7, 2, 12, 16, 0,
   16, 6, -24, -2, -4, -3, -1, -2,
   4, -9, 4, 29, -5, 5, 42, -13,
   8, 9, -3, -7, -25, 11, -6, -7,
   6, 21, -9, 22, 0, 7, -5, 4,
   5, 7, 17, 17, -2, -10, -18, 5,
   2, 30, 13, -4, 5, -9, 10, 20,
   -13, 6, -12, 1, 11, -7, 9, -1,
   -12, -15, -6, 2, 11, 10, 0, 1,
   -4, 12, 3, 3, 0, 12, -1, -4,
   8, 9, -7, -5, 1, 2, 15, -6,
   -2, 13, 5, 25, -8, -5, -15, -5,
   -1, 4, 15, 6, -2, 2, 5, 0,
   -3, -3, 2, 1, -4, 7, 0, 1,
   6, 5, 1, -13, -12, 4, 14, 2,
   2, -4, 2, 0, 1, 11, 5, -5,
   5, -1, 0, 0, -7, -2, 5, 3,
   0, 1, -3, -9, 2, 4, -2, 0,
   -4, 7, 19, -46, -34, -10, -4, 55,
   -23, -3, -30, 1, 47, 16, -13, -24,
   -29, -33, 27, -58, -12, 45, 15, -18,
   -22, -41, 10, 8, 34, 14, -73, -2,
   9, 7, -37, -24, 12, 6, 0, 41,
   -8, -12, -19, -3, -74, -27, -71, -13,
   21, 20, 30, 27, 78, -39, -13, 38,
   -21, -25, -19, 3, -5, -9, -5, 16,
   -8, 4, -18, -24, -13, -54, 37, -1,
   30, 8, -1, -4, 15, 22, -33, 9,
   -4, 8, -19, -26, -10, -21, -12, -39,
   4, 59, 24, -10, -27, 24, 23, 9,
   -37, 13, -1, 1, 45, -16, 23, 0,
   34, -8, -1, -4, -7, -7, -6, 27,
   2, 6, 28, -26, 2, 9, 19, -9,
   22, -4, 21, -9, 0, 10, 16, 10,
   -24, 10, 22, 19, 7, 22, 4, 34,
   -17, 4, -2, 40, 11, 14, -6, -14,
   -16, -14, 0, -12, 14, -13, -9, -4,
   -6, -3, 15, -6, -20, 0, -6, -2,
   5, 1, 12, -15, 2, 6, 10, 7,
   26, -8, -8, 6, -1, -23, 28, 3,
   -6, 12, 1, -1, -3, -1, -6, -4,
   11, -8, 10, -10, -4, 0, 7, 3,
   4, -11, 4, 3, 10, -14, 2, -21,
   -13, 6, -8, -6, 13, -1, 4, 4,
   22, 23, 4, -35, -1, 3, -10, 6,
   -20, -10, 7, -32, -11, -3, 4, -6,
   2, -20, 6, -32, 6, 15, -13, 3,
   -14, -4, -4, 6, 17, -16, 7, -12,
   -6, 5, 12, 4, 3, 15, 6, -5,
   -7, 0, -7, -5, 3, -1, -1, -6,
   0, -4, -1, -4, 0, 1, 2, -2,
   -1, -1, 6, -2, 8, -8, 4, 10,
   6, 0, -5, 4, 17, -5, -6, 4,
   10, -3, 12, 1, -14, -9, 3, -2,
   -5, 16, -2, -23, 6, 17, 7, -23,
   -1, -8, 23, 15, -3, 13, 1, 3,
   -8, -8, -4, -8, 16, 5, -78, -62,
   -16, 35, 31, 8, -5, 8, -13, -6,
   -8, -15, 11, 8, 20, 11, 10, 3,
   -30, -8, -33, 5, -15, 18, -20, 41,
   18, -3, 1, 40, 9, -8, 1, 31,
   -14, -13, 8, -14, 10, 9, 4, 1,
   -32, -26, 1, 7, -10, -8, 41, -2,
   -1, -10, -11, 0, 21, -9, 4, -23,
   1, 1, -11, 38, 6, -16, 18, 16,
   -5, 23, 15, -6, -38, 9, -4, 15,
   11, -7, 12, 2, 13, -18, 7, 3,
   -5, 1, 2, -16, -5, 10, 13, 13,
   -11, -6, 20, -12, 20, 7, -14, -10,
   -3, -1, 7, -5, -9, 0, 18, -11,
   12, -10, 12, 9, -10, 2, 3, -1,
   4, 4, -5, 18, 1, 8, -16, 9,
   -16, 5, 0, -7, 2, 27, 11, 6,
   1, -4, 15, 6, 0, -13, 8, 6,
   -5, -6, 2, -2, -4, 9, 17, -7,
   -5, -9, -3, -5, -14, 26, -9, 0,
   2, -7, -25, 24, 0, 8, -18, 3,
   -9, 17, -32, -25, -2, 39, -2, -19,
   20, 1, 22, 10, 29, -18, -21, 20,
   9, 4, -14, 3, -7, 12, -10, 4,
   -2, 12, 23, -1, 0, 2, 2, 6,
   18, 34, -6, 5, -18, -13, -8, 2,
   15, 4, -5, 11, 7, 1, 1, -6,
   11, -6, 9, 14, 0, -8, 2, 13,
   -18, 6, -11, -4, 0, -1, 1, 0,
   11, -4, 0, -1, -4, 2, 0, -9,
   -9, 3, 5, 1, -9, -3, -5, 5,
   16, -5, 3, 4, -3, -5, -1, 1,
   0, 7, 12, 8, 9, -3, 4, 4,
   0, 2, -7, 6, -1, 0, 9, -1,
   49, 12, 14, -90, 1, -11, -15, 14,
   78, 12, 29, 41, 5, -6, 27, 32,
   -31, -75, -2, 67, -15, -62, 18, -74,
   43, 37, 41, 10, 51, 24, 36, -1,
   28, 53, -25, 49, -50, 30, 26, 46,
   42, 36, -38, -27, -50, -47, -44, -23,
   -51, -30, 48, -6, 27, -33, 44, -1,
   -5, 9, -21, -37, 56, 6, -48, 18,
   -12, -45, 2, -24, 21, 14, 6, -11,
   -14, 32, 0, -25, -23, 3, 1, -7,
   46, -18, -11, -19, 6, -5, 39, 19,
   48, 29, 15, 2, 40, 21, 42, -34,
   7, 7, -30, 26, 14, -14, 8, 2,
   -20, -9, -18, 3, -7, -13, 11, -10,
   31, -4, 11, -71, -11, -6, 24, 22,
   10, 4, 1, 10, 18, -3, -18, 2,
   5, -15, 20, 4, 16, 2, 24, 25,
   2, 2, 21, 16, 21, 19, 1, -2,
   17, -4, 20, 7, -1, 0, -4, 10,
   -14, -17, 12, 2, 8, 2, 12, 16,
   -12, -5, 10, 15, -7, 7, -53, 2,
   -1, -16, -16, -18, -9, 3, 12, 2,
   -18, 10, 4, -27, 9, -4, 6, 25,
   1, 33, -7, 12, -13, -7, 12, -18,
   7, -23, 1, 3, 15, -9, -2, -3,
   16, -16, 0, -1, 26, -10, -6, -10,
   -15, -7, -6, -18, -7, -6, 0, -13,
   -1, 11, -8, -19, -10, 6, -17, 11,
   2, -15, 16, -13, -8, -3, 12, 4,
   12, -5, 1, 18, -16, -8, -8, -21,
   -17, 6, 9, 8, -7, -12, 14, -1,
   -9, 4, -7, 21, -10, -2, 4, 4,
   5, -1, 7, -22, -5, -3, -4, -6,
   5, -3, -3, -6, 8, -3, -2, 4,
   -12, 7, 3, 5, 1, 11, 5, 10,
   10, 0, 3, -2, -2, 4, -12, 8,
   -5, 4, 44, 13, 18, -5, -3, 12,
   -12, -12, 24, 2, 3, 1, 11, 9,
   -2, 4, 5, 77, 13, -1, 17, 5,
   35, -4, 3, -4, 23, -1, 34, 2,
   14, 30, -2, 4, -4, 3, -2, -2,
   12, 6, 18, 17, -1, 4, 1, -12,
   -4, -1, 27, -23, -75, 5, -7, -3,
   -14, 8, 21, 12, 1, -1, -15, 22,
   -7, 19, 11, 35, 2, 9, -1, -15,
   6, -5, 4, 38, 17, -9, 11, -6,
   6, -3, 4, -4, 17, 9, 1, 5,
   -6, 12, 6, -2, 7, -13, 9, 2,
   25, 7, 8, -10, -12, 1, 2, -4,
   -8, 2, 6, -5, -3, 2, 3, 12,
   7, -4, -1, 15, -1, 2, 4, -11,
   -11, -2, 3, 4, 4, 0, -12, -6,
   -4, 10, -5, -6, -5, 0, -5, -5,
   -6, 4, 1, -3, 1, 6, -8, -3,
   32, 27, -3, -18, 14, 8, -8, -6,
   -2, 28, 2, 2, -19, 3, -8, -8,
   7, 3, -22, -18, 0, -5, 24, -12,
   -17, 6, 3, -3, -38, -6, -5, -4,
   2, 7, -5, 17, -6, -13, -2, 9,
   -5, 1, 14, 28, -10, 0, -3, 16,
   -5, -9, 25, 5, 16, -11, -8, -8,
   -2, -24, -5, -5, 19, 0, 8, -3,
   0, 21, 21, -6, -22, -4, -4, -1,
   -2, -32, -7, 15, 19, 27, 5, 0,
   2, -10, 18, -6, 10, -7, 4, 9,
   7, 18, -2, -7, 1, 2, 1, -14,
   -9, -5, -9, -3, 7, 5, 0, 2,
   -6, -1, -3, -1, 5, -2, 1, 6,
   4, -4, -11, 1, 6, -11, 0, 1,
   -13, -2, 6, 1, -3, 6, 20, 14,
   2, -3, -3, -7, 11, 3, -2, -3,
   4, -9, 13, -4, -1, 1, -12, -2,
   -8, -17, -4, 13, -2, -32, -10, -4,
   3, -2, -8, -12, 4, 4, -4, 18,
   -3, -13, 0, 14, -3, -5, -66, -14,
   13, 0, 0, -16, 2, -1, 7, -5,
   18, -9, 16, -6, -10, 2, -2, 0,
   -17, -7, -1, 6, 34, 38, -14, 5,
   15, -3, -23, 23, -17, 0, 11, -17,
   3, -9, 13, -8, -6, -6, -1, 0,
   -23, -11, -21, -64, 8, 18, -10, -6,
   6, 0, -12, -12, -16, 20, 8, -4,
   -1, 4, 9, -15, 3, 2, -18, 9,
   -4, 5, 6, -13, 22, 2, -2, -10,
   -7, 2, -1, 7, -4, -6, -3, 3,
   -14, -5, -6, -3, 7, 0, 0, 5,
   -4, -3, 8, -16, -8, 9, 2, -4,
   -3, -2, 13, -8, 4, -9, 4, -1,
   17, -1, 1, 6, -3, -5, -3, -2,
   -1, 4, 4, 3, -6, 4, 0, 16,
   -15, -75, -54, -7, -49, -47, -23, 10,
   -9, -18, 6, -24, 15, 9, -7, -5,
   -9, -57, 8, -24, -18, -9, -10, -8,
   5, -32, -7, -12, -33, 21, -18, 28,
   -10, -35, -11, -13, 12, -24, 22, 6,
   -35, -42, -86, -12, -5, 26, -32, 31,
   3, -36, -46, 21, -17, 5, -2, 20,
   4, -3, 22, 33, -33, -4, -18, -8,
   -26, -12, -39, 15, -22, -50, -49, 11,
   -36, 66, -12, 3, -37, -57, -19, 14,
   9, 40, 14, -23, -28, -21, 9, -42,
   -12, -32, -27, -8, 1, 41, 6, 19,
   7, 5, -24, 22, -6, -20, 10, -9,
   -9, -6, -7, 12, 16, 2, 5, 5,
   -7, 10, -4, 17, 12, 8, 16, 6,
   -6, 21, -6, -3, 11, -8, -2, -5,
   -4, -7, 19, 16, 8, 9, 13, 18,
   -12, 7, 8, -2, 2, -12, 23, 0,
   -5, 2, 59, -51, -4, 5, -25, 31,
   -5, -24, -11, -22, 8, 8, -23, 0,
   -13, 12, 9, -31, 9, 4, 38, -1,
   0, 4, -10, 10, 16, -18, 35, -2,
   -36, -8, -23, -21, 4, -2, -14, 16,
   17, 4, -2, -3, 11, 4, 10, -3,
   -5, 17, 1, 35, 11, 5, 24, -12,
   -13, -58, -12, 5, 13, 34, 6, -2,
   -19, 3, 10, 61, -4, -11, -3, -16,
   -20, -23, 21, 68, 13, 4, 8, -27,
   -16, 8, 6, -39, -4, 46, -19, -21,
   -7, -15, -3, 17, -4, 8, 0, 2,
   5, 6, 39, -1, -2, 4, 12, 2,
   11, 3, 2, -17, -9, -4, 8, 4,
   14, 1, 0, 0, 0, -15, 21, 3,
   11, -4, -21, 10, 6, -8, -10, 0,
   1, 2, 0, 2, -8, 2, -2, 16,
   -12, -3, 8, 30, 9, 14, -4, 2,
   -1, -8, 16, 2, 0, 11, -3, -11,
   17, 0, -13, -2, -2, 1, 3, -14,
   -16, 5, 2, -4, 0, 5, -6, 0,
   20, -5, 10, 10, 23, -5, -25, -3,
   -7, 0, 17, -26, 4, 15, 22, -12,
   -6, -6, -8, 4, 14, 14, 4, 8,
   -12, 3, 13, 2, -26, 6, -29, 5,
   0, 2, 13, -4, 18, -3, -3, 7,
   5, 11, -13, 5, 1, -15, 19, -3,
   -13, -23, -4, -16, 2, -3, 4, 2,
   7, -3, -19, 0, -14, -14, -4, -6,
   0, 14, 8, -11, 15, 8, 1, 24,
   8, -6, 14, 4, 1, 2, 4, 2,
   2, -1, 4, 2, -2, 3, 3, 6,
   -3, -2, 2, 12, 3, 7, -5, -5,
   2, 8, -10, -12, 1, -3, -3, -4,
   -4, -3, 2, 3, -10, 13, 2, -8,
   2, -3, -6, 6, 7, 6, -6, 0,
   -40, -61, -21, -36, 3, 10, 8, -15,
   -10, 36, -22, 18, -17, -16, -2, -21,
   34, 40, -25, -52, -9, 7, -66, -28,
   -17, 54, 5, 22, 12, -25, -23, 8,
   -13, -26, -16, 12, -22, -14, -2, -14,
   -14, -8, 8, -23, 29, 5, 2, 16,
   -22, 1, -27, -21, -23, -15, -9, 6,
   -4, -5, -23, 16, -33, -16, 34, -29,
   16, 6, 25, -23, 5, -18, -43, 13,
   -8, -17, 1, -43, 36, -46, 11, -12,
   -16, -9, 1, -1, 24, 11, -4, -5,
   -8, -17, 19, -64, 12, 17, 3, 23,
   11, 6, -15, 5, -1, 19, -2, -2,
   -9, -13, -12, 11, -9, -4, -8, -9,
   8, -1, -2, -4, 12, -4, -11, -2,
   10, 3, -7, -4, 5, 0, 14, 6,
   4, -7, 9, -5, 7, -17, 7, -4,
   7, 6, -7, 5, -6, -15, 1, -13,
   25, 20, 2, 24, 31, 24, 10, -17,
   8, 8, -14, 4, 34, -6, 12, 1,
   -7, -29, 8, 2, 10, -8, -6, 9,
   10, 3, 3, -4, -8, 11, 7, 4,
   28, 18, 13, 27, 7, 10, 4, 7,
   16, -10, -2, 24, -13, 31, -45, -11,
   18, 23, -3, 11, 1, 14, 27, -4,
   5, -3, 21, -47, -11, 2, -16, 16,
   -22, -14, -40, -17, -21, -7, -18, -7,
   -15, 32, 7, 0, 13, 10, 4, 5,
   -22, -14, 10, 6, 3, 28, 14, -6,
   30, 40, -3, 20, 1, -2, 16, 0,
   -12, -4, -3, -8, 9, 8, -5, 8,
   -11, -12, 5, -28, 4, 4, -1, -8,
   -7, -2, 12, -12, 6, -9, 3, 3,
   6, -9, 5, 11, -9, 3, 14, -5,
   19, 1, 1, 2, 6, -4, 8, -3,
   -5, -6, -3, 12, 5, 8, -7, -5,
   -31, -12, 9, -70, 10, -40, -26, 18,
   -40, -55, 25, 10, 5, 7, 3, 14,
   -4, 3, 20, 17, 19, 27, -43, 14,
   -25, -18, 16, 28, 23, 16, 9, -3,
   -26, -23, 1, -23, 14, -24, -11, -11,
   10, 1, -21, -1, -35, -9, 32, -39,
   2, -37, 22, 1, -43, 34, -18, -19,
   -15, -22, 5, 48, 28, 31, -32, 27,
   -6, 21, -29, -11, -5, 5, 2, 12,
   -10, 1, 25, -21, 44, -10, 35, 1,
   13, 13, -23, 37, -9, -15, 4, 8,
   -9, -31, 6, -12, -30, 23, -22, 35,
   -1, -9, 11, -4, 14, -9, 21, 6,
   12, -3, -3, 12, -20, 0, 8, 16,
   -14, -2, -4, -2, 1, -5, -9, -21,
   -5, -1, -26, 10, 4, -5, -8, -9,
   -15, 3, -1, 8, -5, 10, -14, -2,
   7, -3, -5, 17, -7, 11, -5, 19,
   -29, 3, 13, 21, -13, 13, -8, -15,
   17, 2, -22, -3, 1, 6, 3, 7,
   4, -10, 3, 1, 7, -1, 6, -16,
   14, -24, 14, 27, -2, 26, -8, -13,
   28, -13, 27, -19, -14, 14, 5, 0,
   1, -3, 6, 11, 11, 33, 3, -24,
   24, 6, -44, -22, 6, -16, 4, -7,
   -37, -13, -20, -8, 12, 7, -6, -20,
   -20, 16, 36, 1, -11, 25, 11, -18,
   -2, -38, -16, 33, 22, 6, 3, 7,
   22, 3, -1, 10, -5, -37, -21, 24,
   -16, -14, -6, -7, 18, -28, -9, -5,
   11, -3, -17, 3, 12, 13, -13, 0,
   8, -3, 1, 15, 4, 8, 5, 9,
   5, 4, -1, 1, 8, 3, 8, -1,
   -5, 6, -3, -2, -12, -17, -10, -7,
   4, 1, -4, -5, -3, 3, 0, -16,
   -7, -9, 1, -7, 14, 3, -4, -10,
   -3, -4, -3, 27, -6, -27, 6, -13,
   -7, -19, -5, -1, 1, 18, -7, 8,
   21, -2, 31, 26, 14, 13, -38, 19,
   35, 16, -10, 16, 21, -14, 37, 1,
   2, 4, -5, -8, -7, 1, 11, -3,
   5, -5, -9, -11, -31, -49, -3, 4,
   -15, 15, -35, -31, 16, 2, 28, -8,
   -35, 37, -1, -15, -2, -21, 3, -20,
   -24, -30, -36, -15, -1, 10, -16, 12,
   -12, 24, 10, -40, -3, -20, -7, 11,
   -38, 4, -20, -13, -9, 0, 0, -2,
   -44, -3, -25, 14, -2, -33, -2, -22,
   11, 1, 25, 2, 13, 18, 8, -6,
   3, 5, -3, 7, -4, 14, 0, -10,
   8, 1, 0, -17, 2, 24, 5, -4,
   -3, -3, 4, -2, -7, 3, -1, -4,
   8, 5, -11, -2, 4, -6, -3, 16,
   0, 10, -1, -16, 4, -11, 2, -4,
   34, -8, 44, -3, 8, -34, 4, -48,
   22, 40, -7, -12, -6, -27, 1, 16,
   -22, -1, -24, 35, -27, -15, 66, -40,
   20, 7, 6, -24, -39, -28, -2, -3,
   10, 57, -27, 22, -8, 22, -25, -4,
   1, 5, 59, -11, -30, -14, -14, 10,
   -6, -36, 76, -1, 5, -25, -8, -11,
   27, -6, 22, -19, -13, -25, 9, 15,
   11, 4, -28, -46, -20, -46, 15, -11,
   23, 14, -4, 15, 41, 2, -12, 1,
   -29, 16, 17, -6, 16, 22, 33, 3,
   18, 31, 35, -18, 11, 19, 4, -6,
   -11, 3, 17, 16, -21, 2, 1, -5,
   -13, -16, -11, -23, 6, -13, -16, 14,
   -7, -6, -17, -10, -14, 5, -9, 6,
   -17, -16, 2, 1, 11, 10, 28, 6,
   15, -12, -5, -11, 10, -9, 3, -5,
   -2, -2, 5, 21, -11, 0, -15, 13,
   45, -6, 10, 13, 15, 28, 12, 15,
   16, 10, 20, 1, 2, 9, 17, -3,
   0, -3, 6, 22, -8, 6, 36, -1,
   -10, -1, 13, 9, -23, 19, 24, -5,
   -11, 8, 0, -19, 20, 24, -6, 10,
   -4, 25, -23, 18, 6, -18, -9, 1,
   -11, 17, 30, -10, 19, -8, -7, 7,
   3, 19, 11, -50, 5, 45, 14, -42,
   25, -19, 2, 3, 11, 16, 26, -5,
   -4, -17, 32, 1, 1, 54, 22, 3,
   2, 13, -6, -41, 13, 3, 15, -4,
   -6, 12, -14, -8, -8, 45, -21, -23,
   11, 2, 3, -2, 7, -8, 21, 3,
   26, -6, -1, -2, 2, -1, -11, 3,
   -9, 6, 6, -7, -3, 3, 9, 12,
   4, -5, -1, 9, -1, 6, -3, -11,
   -3, 0, -9, -8, 5, -3, 8, 6,
   4, 6, -2, 5, 7, 0, -4, -13,
   -8, -1, -21, -20, -8, -18, -1, 0,
   -4, -11, 7, -5, 2, 3, 3, 3,
   2, 4, -6, 2, 2, 9, -18, 16,
   1, -16, 6, -6, -5, 5, 0, 3,
   -14, 6, 0, 4, -7, -10, -11, -12,
   25, -5, 21, -7, 0, -21, 6, -2,
   6, -19, -8, -13, -4, 24, 23, -12,
   17, 0, 7, 17, -6, -19, 8, 29,
   17, -26, -5, 7, -4, 14, 18, -7,
   -13, 32, 3, -12, 7, 6, 3, -13,
   -11, 0, 10, -10, -10, 18, -3, -21,
   41, 3, 5, -9, 7, 34, -2, -14,
   -3, 5, -11, 5, -18, -14, -1, -8,
   6, -2, -6, -7, -5, -4, -3, 6,
   -8, 2, 15, 4, -5, 7, 5, -1,
   1, -7, 6, 1, -2, 5, -16, -4,
   4, 6, -8, -13, 17, 3, 0, -1,
   -5, 16, 10, -1, 0, 6, 4, 2,
   11, -4, 0, 5, -2, -2, 10, -1,
   5, 6, 0, -4, 8, -10, -10, 0,
   -2, 5, 2, 6, -1, 3, 8, 7,
   -3, -6, -2, -9, -5, 8, 11, -4,
   5, -1, 15, -1, -12, -4, -1, 1,
   8, 4, -4, -9, 6, -3, 8, -2,
   2, 8, -10, 7, 12, -7, 1, -6,
   10, -5, 2, -22, -9, 7, -8, -7,
   25, -7, -12, -14, -5, -16, 2, -16,
   4, 10, 13, -9, -6, 20, 5, 14,
   -2, -5, 3, -12, -23, 16, -1, 15,
   4, 13, -2, 15, -1, 4, -5, 0,
   -22, 0, -1, -3, 28, 0, 5, 5,
   4, -2, 2, -5, -7, 2, -11, -8,
   2, 0, 4, -10, -1, 5, 0, -3,
   -3, -3, -7, 4, -4, 6, 5, -6,
   8, -7, -4, -1, 15, -7, 1, -1,
   3, 5, -4, 16, 1, 10, -6, 6,
   21, 13, 6, 1, 17, -2, 5, -21,
   7, -5, 3, -11, 3, -6, -5, -6,
   4, -31, 2, -21, -5, 1, 6, 45,
   7, 4, -17, -9, -5, -7, 33, -24,
   15, -4, 13, 5, 4, 10, -15, -14,
   6, -14, -26, 1, 26, 15, 32, -17,
   -22, -34, -9, -13, 3, 25, 16, 31,
   -12, -17, 25, -7, 6, 9, 11, -36,
   27, -17, -31, -9, -40, -9, 1, -9,
   8, 28, 24, -35, -22, 28, -6, -4,
   2, 5, 8, -12, -29, -56, 9, -3,
   2, 16, 3, -14, -8, 0, -9, -9,
   -19, -22, 30, -12, 1, 32, 19, 12,
   -12, 10, -9, -6, -7, 8, -20, 3,
   0, -17, -13, 26, -1, 11, -10, -19,
   0, -15, -12, 15, -17, 15, 2, -3,
   -5, -15, -19, 13, 11, 30, -13, -2,
   15, -25, 26, 42, 6, -14, -28, 31,
   6, -4, -10, -8, 17, -19, -15, -29,
   11, -21, -7, -15, -12, 13, -2, -22,
   5, -30, -2, 13, -12, -7, 1, 90,
   7, 15, -33, -1, -26, -13, 7, -39,
   22, 2, 26, 16, 8, 31, -1, -26,
   3, -22, -16, -1, 36, 19, 38, -20,
   -44, 5, 0, -47, -25, 3, 29, 70,
   -7, -21, 25, 38, 37, 26, 32, -52,
   5, 3, -37, -40, -47, -8, -14, -10,
   49, 43, 23, -25, -39, 15, -20, -20,
   10, 23, 15, 6, -18, -128, 16, -9,
   -27, 8, -4, -12, -11, 12, -7, -1,
   -8, 28, 26, -8, -8, 12, 19, 19,
   10, 31, -9, -5, -4, -8, -20, -12,
   -4, -20, -37, -46, 12, 11, 1, -45,
   3, -18, -18, 6, -12, 11, 4, -6,
   -20, -1, -43, 38, 9, 55, -28, 1,
   41, -30, 43, 36, 13, -21, -18, 57,
   34, 22, -10, 8, -14, -12, -8, 8,
   14, -25, -23, -5, -17, 30, -15, -19,
   -4, 23, -16, -51, -17, -9, 46, 29,
   27, -9, -12, 13, -8, 4, -15, -26,
   21, 11, 16, 23, 1, 6, 36, 19,
   19, 7, 58, -33, -9, -1, -38, 14,
   -40, -10, -6, -11, 24, -59, 22, 22,
   38, -8, -17, 17, 15, 60, -6, -8,
   36, 9, -26, 41, 24, -63, -18, -68,
   -42, 39, 18, 27, -34, 17, 1, 10,
   32, -49, 35, -11, -6, 0, 11, 9,
   -30, 24, -35, 7, 19, 35, -1, 30,
   6, -18, -26, 34, 21, -14, -6, -12,
   31, 6, 32, 7, -7, -76, -14, -10,
   3, 30, -7, 45, 23, 1, 19, -38,
   -19, 13, 13, -27, 15, -18, -2, -2,
   -47, 16, -41, 47, 21, 16, -1, 11,
   57, 7, -9, 9, 13, -2, 36, 27,
   -2, -71, 1, 6, -18, -9, 18, 33,
   -10, -46, -18, 7, -21, 15, -24, 13,
   -10, 19, -2, -16, -21, -10, 74, -48,
   13, -37, 23, 20, 8, 29, -57, -37,
   21, -8, 0, -6, -40, -30, 67, 21,
   50, 11, 46, -37, -31, -11, 8, -1,
   -12, 26, -59, 65, 26, 52, 22, -71,
   -21, -25, -20, -3, 38, 55, -64, 34,
   32, 28, -36, -48, 100, -70, -31, -83,
   47, 3, 10, 29, 21, 26, -23, -12,
   22, 2, 38, -23, -14, 126, 47, -16,
   -24, -32, -55, 58, 80, 41, -13, 37,
   -14, -5, -23, 43, 15, 21, -41, -71,
   -25, -28, 64, -5, -10, -116, -19, 19,
   26, 46, 21, -31, 26, 2, -6, -19,
   59, 31, 15, -29, -2, -18, -23, 0,
   -46, 52, -18, 5, 2, -41, 5, 8,
   27, -3, -25, 4, 2, 51, 39, -30,
   -26, -28, 31, -8, 6, 24, 12, 8,
   -9, -38, 20, -5, 5, 1, -28, 37,
   0, -28, 23, 12, -4, -9, 82, -19,
   9, -7, 12, 27, 18, 37, -14, -60,
   29, -13, -7, -11, -43, -31, 26, 12,
   25, -28, -8, -19, -7, 28, 65, -37,
   30, 30, -10, 72, 26, -5, 27, -70,
   -51, -29, 40, -60, 9, 24, -63, 45,
   -26, 38, -25, 19, 82, 5, -7, -42,
   -87, -14, 9, 22, 40, 29, -46, -55,
   -46, 7, 12, -12, -22, 78, 82, -28,
   -24, -50, 0, 56, 60, 7, 30, -8,
   -39, 57, 2, 26, 3, -11, -36, -60,
   -69, -52, 30, 1, -14, -69, -28, 19,
   26, 1, 31, 27, 27, -22, -5, -18,
   34, 5, 6, 6, 9, -21, -19, 15,
   -50, 36, -10, 27, 7, -23, -16, 16,
   -18, -22, 25, 12, -31, 36, 33, -30,
   -45, 127, 39, -22, 62, 39, -19, -79,
   38, -37, 35, -72, 78, 70, -107, -8,
   20, -125, 26, -49, 41, -1, 127, -10,
   61, 122, 28, 88, 12, 97, 18, -124,
   127, 17, 40, -36, -43, 21, -41, 32,
   -9, -97, -51, 10, -5, 101, 117, -34,
   -18, -72, 100, 78, 106, -75, 66, 88,
   -23, -62, 61, -128, -73, -58, -126, 87,
   -125, 4, 57, 59, 79, 124, -12, -27,
   125, -25, -93, 48, 89, 101, -76, -116,
   -90, -97, -55, 98, 3, -108, 127, 37,
   -127, -60, 127, 126, -40, -126, 127, -124,
   -89, -127, -9, 59, 47, -124, -79, 45,
   -87, -128, -78, 74, -11, -3, -59, -21,
   -14, -128, -15, -58, 126, -128, 126, -51,
   -123, -20, -31, 15, 108, -91, 80, 59,
   -127, 15, -98, 126, 87, 3, -65, 95,
   -126, -3, 127, -15, -118, 68, 127, -10,
   64, -128, -2, 7, -83, -91, 38, -104,
   78, 103, -8, -72, 92, 117, -126, -51,
   -17, 44, -61, -96, 57, 32, -60, -126,
   -17, 49, 59, 14, 127, 111, 44, 2,
   127, -1, -41, -87, -3, 55, -61, 84,
   18, 14, 97, 4, -9, -97, 70, 40,
   -18, 127, -74, -74, -42, 127, 21, 126,
   -67, -32, -46, -1, -32, -117, -128, 125,
   -37, -10, 13, 88, 16, 59, -64, -128,
   -94, 0, -124, 89, 53, 127, 84, 67,
   121, 56, -11, -22, 126, 72, 27, 127,
   -88, 47, 54, 64, -110, -128, 51, -52,
   -12, 127, -22, 122, -33, 122, -55, 127,
   36, -127, -99, 71, 32, 90, -22, 71,
   -75, -126, -73, 127, 82, -40, 100, 62,
   82, 103, -100, -118, 127, -89, 125, 112,
   -62, -29, -124, -121, 28, -23, 79, 103,
   -115, 64, -33, -37, 73, 72, 47, -5,
   115, 127, -25, 99, 5, -122, 15, -87,
   33, 102, -2, -15, -22, 26, -121, -76,
   14, 127, -96, -1, 79, 76, 40, -124,
   -15, -43, 114, -32, 91, 120, 85, -14,
   40, -111, -92, 60, -51, 60, -21, 12,
   -32, 78, 53, 69, -42, -64, 15, 22,
   -51, -128, 17, 21, 87, -4, -4, 8,
   -125, -80, -67, 101, -35, -1, -104, 127,
   45, -102, 16, -112, 59, 119, 96, -119,
   127, 97, -114, 102, -35, 126, 88, 125,
   126, -81, -84, -120, 106, 125, -127, 90,
   -103, 46, -15, -3, -82, 37, 12, -15,
   -17, -48, 82, 46, -72, 120, -21, 112,
   26, -127, -84, 63, 26, 127, -63, 127,
   -42, 80, 49, -128, -23, 41, -39, 126,
   27, 111, -115, -123, 29, 19, 95, 95,
   -38, -70, -120, -80, -60, -123, 76, 40,
   -125, -35, -122, 10, 127, 34, 77, 31,
   80, 114, 37, 99, 21, 24, -98, -60,
   17, 124, 34, -64, -29, -108, -112, 33,
   96, 125, -39, -47, 88, 55, 126, 35,
   -26, 73, 26, -63, 59, 98, -88, -16,
   -68, -126, -47, 41, -121, 44, -49, -96,
   -127, 22, 67, 43, 33, 59, -73, -18,
   25, 70, 3, -22, 57, -59, 29, -127,
   -42, -51, 58, 125, 10, 126, -128, 126,
   -128, -95, 124, 10, -18, 127, 117, 123,
   -51, 119, -53, 1, -41, 9, -117, -39,
   -43, -127, -14, -125, 21, 26, 50, 69,
   -98, 127, -13, -70, -74, 46, 127, -126,
   11, -40, 127, 49, 28, -41, 95, -21,
   39, -121, -127, 54, 63, 126, -8, 69,
   76, 126, 127, 126, -113, 38, -73, 126,
   127, -6, -80, -33, 20, 47, 46, 119,
   -46, -87, -127, 103, -93, -71, -25, 81,
   -124, 9, -91, -37, 11, -78, 125, 27,
   24, -12, 75, 32, -51, -43, -126, -76,
   30, 95, -38, -73, 13, -63, -83, -73,
   114, 19, 74, 43, 84, -55, 110, -1,
   68, 126, 46, -25, -63, -2, -70, 78,
   -76, -40, 116, 15, -41, 11, 46, -75,
   -128, 31, 126, -3, 72, 29, -100, -51,
   -99, -51, -122, -111, 10, -60, 63, -127,
   80, 35, 24, 125, -125, 44, -8, 86,
   -127, -113, 117, -105, -127, 95, -14, 126,
   6, 78, -23, -48, -120, -84, -89, -118,
   14, -34, -64, -62, -34, -109, -33, 126,
   -74, 127, -128, -102, -127, -128, 127, 35,
   60, 127, 123, 72, 5, -61, 127, -97,
   126, -83, -126, 76, 47, 80, -45, -39,
   75, -22, 127, -26, -113, -4, -94, 125,
   -128, -126, -1, 48, -70, 64, -5, 83,
   -6, -40, -125, 62, -35, -77, -109, 116,
   -109, 127, -128, -65, -124, -95, 110, 3,
   7, 127, -44, -53, -31, 8, -73, -2,
   -74, 97, -128, -79, 127, 2, 82, -75,
   63, 29, 127, 47, 49, -105, 14, -96,
   19, 106, 112, -34, -22, -41, -9, 127,
   -106, 45, 31, -57, 127, 38, 119, -19,
   -113, 7, 127, -38, 4, 85, -4, 30,
   59, -61, -124, -128, -1, 87, 62, -112,
   0, 126, 107, 125, -30, -58, -21, 127,
   -38, -3, 127, 11, -128, -23, 32, 127,
   125, 21, -28, 21, 0, -120, -67, -106,
   127, -102, 91, -5, 85, -77, -128, 67,
   1, 127, -127, 3, -125, -88, 77, 127,
   123, -128, 99, 60, -116, 113, 127, 29,
   50, 13, -64, 40, -23, 17, -48, -16,
   -67, -45, 127, 127, -112, -17, -108, 127,
   127, -127, 87, -8, -53, 27, -8, 125,
   -3, 34, -117, -75, 53, -29, -60, 127,
   27, 66, -124, -25, -110, -72, -39, 6,
   27, -125, -38, 23, 43, 106, -54, 13,
   -128, 52, -127, -93, 109, -102, 36, -103,
   107, 127, 96, -10, 89, -12, -62, 127,
   26, 80, 33, -53, -124, -28, 36, 126,
   -98, 44, -128, 5, 127, 85, -76, -78,
   -128, -79, 106, 29, -30, 63, -36, -124,
   92, 119, 19, -128, -29, 25, 84, 127,
   -128, 127, 71, 126, -10, -128, 127, 127,
   9, 127, 123, -127, -51, -127, 124, 127,
   -128, 86, 121, 67, 126, -43, -25, 11,
   34, 127, 127, -123, 127, -20, -128, -99,
   127, 102, 127, -116, -127, 71, 49, 127,
   106, 77, -86, -26, -91, -31, 80, 127,
   -110, 28, -25, 32, -101, -90, -9, 40,
   -83, 56, 11, -46, -128, 102, -42, 127,
   70, -121, 126, -20, 69, -73, 2, 127,
   -24, 13, -126, -128, 70, -123, 60, 9,
   127, -80, 119, -108, -62, -69, -72, 69,
   41, 104, -16, 8, 16, 50, -104, 34,
   -3, 127, -46, -69, 51, -127, -41, 127,
   123, 127, -7, 101, 87, 127, -107, 127,
   79, 55, -69, 110, -8, 6, 37, 36,
   -128, 13, -86, 47, 84, 76, -119, -80,
   -128, -90, 12, 36, -77, 86, -126, -6,
   47, -122, -121, -128, 29, -118, -31, 125,
   27, 9, 124, 123, -79, -68, 122, 127,
   -8, 93, 1, 16, -77, -128, 108, 126,
   127, 1, 127, 27, 46, -60, 127, 82,
   -19, 122, 127, 6, 69, 121, -128, -120,
   127, 126, 127, 107, 18, -40, 125, 122,
   -2, -54, -126, -51, 45, -77, 72, 121,
   -126, 88, -94, 75, -127, -96, -15, 125,
   57, 126, -128, -114, -128, 127, 39, 110,
   82, -122, 115, 83, 113, -120, -22, 86,
   -76, -47, -63, 17, -5, 2, 98, -128,
   127, -18, 118, -127, -75, 9, 1, 127,
   -24, 74, 3, -28, -49, 65, -97, 6,
   -110, 106, 48, -53, 53, -41, 108, 38,
   -89, -32, -79, -86, 108, 124, 72, 49,
   -119, 123, -90, 119, 62, -28, 68, 79,
   -127, -16, -18, -51, 98, 38, 18, -52,
   -62, -118, 31, 81, -69, 103, -126, -8,
   -126, 69, 37, -128, -69, 114, -128, 44,
   -7, -127, 47, -94, -128, -69, 124, 33,
   -58, 127, -3, -71, -21, -127, 102, 127,
   -106, -49, 20, -24, -63, -44, 107, -86,
   -46, 127, 127, -22, -113, -23, -128, -101,
   64, 127, -127, -13, -115, -125, 59, 125,
   19, -87, -74, -14, -106, 30, 104, -97,
   -127, 95, 45, 28, -126, -72, -48, 127,
   -24, 127, -126, -4, -40, -14, -72, 127,
   -23, -116, 125, 127, -27, -33, -26, -55,
   12, 36, -86, 31, 68, 123, 113, -127,
   126, 11, -128, -79, -125, 14, 118, 127,
   -94, -121, -43, -17, -49, 42, -12, 127,
   -75, 123, -41, -74, -19, 64, -42, -112,
   -7, -128, -126, 40, 29, 61, -101, -113,
   124, 17, -120, 127, -120, 100, -64, 75,
   -97, -48, -4, -41, 126, -5, 105, 19,
   121, -41, -128, 40, -125, 35, 127, 46,
   3, -127, -63, 4, -53, -67, -88, 42,
   36, 62, -120, -128, -61, -59, -18, -118,
   -128, 126, -2, -47, -17, -126, 65, 123,
   126, -69, -128, -128, -110, -66, -90, -127,
   42, 113, 18, 126, 69, -128, -61, -69,
   126, 124, -127, 25, -119, -127, 54, 127,
   -123, 124, 4, -109, 85, -83, -39, -127,
   -58, 127, 127, -66, -19, 92, -100, -104,
   -102, 27, -23, -62, -128, -74, -23, 127,
   -126, -127, 125, 126, -126, 88, -128, -103,
   127, 56, -116, -124, 127, 29, -46, -96,
   127, 48, -124, -87, -127, 4, 127, 126,
   93, -9, 12, -40, 117, 15, 36, 86,
   102, 126, 123, -60, -122, 84, -29, -35,
   35, -62, -5, 52, 54, 55, -65, 127,
   -127, 8, 27, 126, -10, 85, 12, -80,
   -127, -113, 1, -47, 126, 34, 64, -91,
   -125, -117, -127, -30, -70, 77, 127, 67,
   54, -128, 80, 127, -19, -50, 2, 108,
   -8, 127, -37, 45, 75, -128, 18, -63,
   -68, 9, -124, 121, -46, -103, 66, 90,
   -126, -126, 15, -126, 7, 104, -31, -117,
   -127, 14, -92, 127, -5, -31, -128, -126,
   127, 62, 90, 50, -70, -119, 21, 127,
   -125, -80, 14, -24, 122, -71, -128, 14,
   -92, 127, -71, 18, 120, 125, 48, -119,
   -36, -126, 44, 51, -120, -22, 115, 127,
   118, -127, 127, 70, 5, -92, -79, -127,
   127, -19, -125, -103, 125, -86, -6, -124,
   127, 22, 127, -82, -49, -79, 89, 81,
   93, 36, 96, -83, -14, -120, 55, 85,
   19, 123, 127, 5, -124, 127, 80, 61,
   -87, 74, 42, -54, -64, 87, -63, 72,
   -47, -6, 55, 127, 75, -41, 0, -80,
   -128, -120, -31, 6, -16, 55, 92, -16,
   -128, 22, -97, 59, -6, 95, -32, 73,
   -50, 125, 127, 127, 35, 46, -36, -9,
   -124, 105, 98, 124, -80, -88, 127, -121,
   125, 29, -20, 106, -128, 25, 127, 122,
   -1, -128, 126, -103, 44, 126, 83, -127,
   -91, 71, -16, -112, -124, 13, -128, -126,
   127, -75, 120, -64, -20, -38, -55, 35,
   -107, -17, -7, 67, -20, 127, -128, 126,
   33, 38, -128, 109, 127, 82, 126, 32,
   -62, 19, -30, 29, 87, 30, 59, 127,
   41, -47, -46, 103, -28, -126, 126, -127,
   93, 35, -3, 7, 78, -92, 109, -128,
   121, -126, 34, -20, 78, -102, 127, 43,
   30, -127, 100, 36, 72, -13, 111, 25,
   -76, 126, 35, 46, 44, 104, -94, -45,
   -128, -13, 26, 24, -96, 68, -30, -20,
   58, -39, 125, 123, 127, -85, -78, 112,
   -113, -105, 29, 126, -128, 114, -5, 105,
   31, 121, -88, 121, -4, -120, 59, 87,
   -84, -94, 127, 127, -15, 70, -51, -15,
   -128, -72, -123, 111, -95, 127, -68, 48,
   121, 52, 18, 109, 3, -98, 80, 45,
   -23, -62, -104, 97, -31, 47, -36, -54,
   -19, -128, 6, -122, 44, 72, -2, -109,
   82, -113, -46, -105, -106, 40, 29, -128,
   -94, 88, -56, 3, -92, 119, -128, 125,
   50, 22, 40, 78, 127, 13, 82, 7,
   -70, 127, -105, 121, 126, 19, -56, 127,
   -31, -63, -128, 127, -28, -46, -28, -126,
   18, 34, 15, -127, -33, 126, 19, -123,
   -126, -122, -111, -18, 18, 8, 127, -19,
   -41, -31, 32, -76, -42, -43, 127, -108,
   -73, 127, 54, 56, -12, 20, -66, -123,
   -116, 53, 52, -22, -113, -84, 125, -127,
   -11, -127, 127, 96, 40, -12, -127, 127,
   -112, -72, 123, -26, -100, 87, -126, 98,
   109, -47, -117, 120, 25, 16, -20, -53,
   -43, 100, 26, 126, 42, -33, -67, -92,
   46, 127, -68, 62, -88, 127, -124, 36,
   -21, -7, -71, 32, 125, -128, -38, 81,
   51, -126, -126, 106, 64, -112, -61, -41,
   -1, -128, 46, -128, 109, 64, -77, -109,
   127, -1, -96, 13, 94, -107, 90, -98,
   -24, -52, -49, 117, 35, 106, -128, 89,
   -38, 72, 62, -24, 127, -127, -102, 27,
   122, -65, -4, -112, 113, 7, 35, 127,
   2, -17, -83, 127, -44, 24, -119, -126,
   -97, 52, -20, -128, -62, 67, -80, -128,
   -125, 33, 92, -47, -29, -115, 85, -69,
   -19, 56, 93, -126, 43, -58, 112, -53,
   32, 127, 75, 0, -43, 5, 84, -10,
   18, 54, 0, 55, -61, -128, 123, -128,
   19, 15, 125, 24, 4, 1, -7, -55,
   -74, -78, 74, 30, 31, 115, -128, -96,
   -106, -39, -47, 75, 56, 49, 2, -75,
   17, -86, 118, 127, -14, -72, -125, -110,
   -97, 127, 116, -64, 1, 67, -4, -19,
   41, 14, 74, 54, 37, -76, 67, -57,
   -13, -128, -8, 111, -116, -96, -2, -11,
   -124, -123, 46, -9, 44, 100, -21, 45,
   127, -18, -7, 1, 77, -68, 68, -29,
   5, 114, 64, 90, 42, 108, -127, 34,
   -106, -22, -126, 36, 125, -127, -74, 48,
   125, -117, 66, 18, 118, 127, 69, 127,
   -8, -65, -121, 127, -37, -85, 3, -126,
   -16, -42, -127, -15, -57, -40, -25, -43,
   -8, -41, 25, -116, 32, -84, 96, -58,
   127, 60, 127, -104, 71, 21, 15, 48,
   125, -32, 105, 39, -45, -37, 127, 60,
   85, 127, -1, 29, 28, -121, 43, -42,
   -127, -4, 127, -60, 82, -66, -22, 59,
   -6, -83, 25, 88, 73, 126, -35, -103,
   -124, 11, -67, -12, -49, -69, -105, 74,
   -25, 29, 119, 127, 39, 59, -83, -6,
   -18, 62, -65, 103, 120, 42, 97, 3,
   125, 56, 2, 30, -122, 126, 6, -11,
   -113, 125, 120, 27, -15, 120, -43, 58,
   -89, 15, 127, 75, 127, -7, 104, 90,
   127, -121, 90, -87, 19, -56, -28, -102,
   -20, -39, 9, 3, -46, 51, 101, -46,
   -127, -116, -124, 64, 121, -74, 84, 18,
   -47, -27, -84, 66, 125, 126, 100, 81,
   25, 45, -127, 127, 33, -128, 127, -125,
   42, -4, -41, 28, 8, -128, 55, 62,
   101, -17, -101, -82, 127, 82, -2, 47,
   -11, 2, -9, -4, 70, 33, 12, 12,
   25, 23, -7, 16, -20, -59, -41, 24,
   -21, 7, 2, 34, -18, -31, 17, 11,
   12, -50, -53, -31, -83, -37, 5, -16,
   10, 83, 3, -36, -34, 45, -53, 23,
   -45, 53, -1, 45, -6, 12, -22, -41,
   -127, 50, -4, 6, 18, -7, -37, 66,
   15, 37, -18, -62, 2, 18, 9, -1,
   100, -64, -68, -34, -7, -57, 50, 20,
   -52, 13, -6, 28, -77, 28, -77, 127,
   -71, 0, -29, 43, -127, 19, 9, 127,
   18, -15, -12, 22, 68, 11, -55, -27,
   9, 2, -123, -51, 28, 1, 1, -4,
   -40, -20, 7, -102, 9, -83, -24, -55,
   -3, 8, -25, -35, 24, -95, 93, -14,
   10, -3, 1, 28, -123, 73, 78, -69,
   42, -27, -23, -42, -8, 68, 6, 54,
   44, -56, -11, 5, -127, -64, -3, -62,
   -12, -92, -15, 11, 54, -5, 24, -46,
   32, 10, -24, 11, -42, -63, -54, -32,
   -9, -91, -17, -121, -34, -13, 42, 8,
   89, -13, -44, -54, -69, -96, 17, -42,
   25, 45, -20, -75, -55, 43, -29, -15,
   -1, -21, -16, 20, 9, 30, 39, -27,
   57, -4, -87, -47, -38, 52, -34, -26,
   -32, 11, 8, -13, 27, -5, 88, -25,
   57, -11, -97, -13, -32, -63, 72, 18,
   82, 64, 7, 1, -82, 46, -65, 40,
   -55, 31, 27, 57, 17, -96, 11, -19,
   20, -26, 39, 14, 89, 56, -89, -44,
   -9, -69, -37, -75, 22, 2, 29, 4,
   19, 26, -12, -128, 11, -128, -74, 8,
   -2, -51, -87, 59, 51, -119, 57, -45,
   -18, -56, 8, 15, -119, 125, 35, -125,
   36, -34, -42, -15, 21, 90, 13, 68,
   59, -120, 88, 3, -91, -64, -78, 3,
   23, 49, 30, 3, 20, 5, 55, -83,
   47, -24, -5, -2, 7, 7, -37, -17,
   11, -42, -40, 105, 37, 40, 43, 52,
   -35, 15, -51, 0, -93, -67, -87, -88,
   36, -2, -61, -39, -52, -10, 18, -45,
   108, -66, -69, -10, 8, 0, 70, 29,
   22, 86, 19, -60, 96, -56, 36, -31,
   56, 2, 6, 38, 0, -2, 120, 0,
   -12, 93, -41, -123, -13, -8, 11, 16,
   -52, 20, -29, 50, 23, -10, -75, -126,
   -9, 45, 119, 24, 77, -125, 72, -123,
   -61, -123, 27, -74, 64, -1, -38, -63,
   25, 65, 89, -44, -3, 46, 54, 15,
   80, 126, -48, -100, 15, -21, -54, -15,
   69, -88, -50, -54, 63, -7, 15, -53,
   -10, -58, 9, -60, 41, 46, -50, -127,
   27, -9, -42, 40, 22, -106, 5, 30,
   91, -42, 109, -3, -1, -62, -96, 23,
   -15, -27, 19, 7, 31, -105, 97, -17,
   39, 42, 4, 31, 44, 71, -69, 69,
   2, 55, -59, -76, -2, 12, 102, 64,
   102, -12, -51, 28, -21, -12, 19, -60,
   54, -43, -48, 52, -38, -5, -41, -53,
   121, -51, -55, -36, -16, -42, -109, -14,
   -24, 13, 14, 30, 50, -93, 58, 99,
   99, 42, -113, 5, -65, 59, 12, -17,
   51, 122, -53, 9, 74, -6, 66, -128,
   31, -14, 24, 5, -24, -12, -56, -28,
   -27, -95, 124, 84, 87, 5, 81, -28,
   -105, -82, -12, 16, 21, -21, -14, 65,
   19, -55, 102, 9, 24, 14, -9, -35,
   66, 78, 4, -19, 8, 38, -76, -109,
   74, 88, 37, 85, 94, 84, 52, -85,
   -49, -21, -3, -39, 55, -43, -12, -47,
   35, 20, 8, 31, 65, 2, 10, -27,
   62, 96, -56, -18, 24, -58, 29, -14,
   6, -46, 46, 20, 84, 76, 79, 45,
   64, 45, 23, 18, -16, 39, -88, 16,
   -32, 93, 0, 96, -14, 0, 88, -26,
   -39, -32, -74, -83, -101, -1, 7, -79,
   5, 90, 44, -26, 14, 46, -64, 19,
   11, 76, 119, -19, -17, -102, -126, 54,
   10, 12, -7, 126, 110, 126, 38, -128,
   -28, -122, -74, -112, -80, 124, -128, 83,
   -47, -16, 53, -114, 127, -18, 5, -123,
   86, 4, -36, -38, 14, 19, -44, -84,
   -95, 68, 84, -14, 53, 125, 84, -35,
   -94, -21, -33, 81, 84, 36, -7, 121,
   -18, -6, 7, 45, -20, 10, -35, -126,
   33, -1, 90, -15, 46, -36, -110, -27,
   1, 79, 65, -60, 99, 52, -8, -80,
   28, 18, 33, 21, -32, 11, -1, 12,
   -41, 37, 8, -81, 13, 33, -16, 94,
   74, -19, 4, 27, 42, 27, 10, -52,
   -22, -23, 23, 2, 66, 44, 45, 14,
   0, 14, -14, -3, -30, 20, -97, -58,
   34, 10, 67, -126, 1, 28, 125, -40,
   -32, -47, -48, -28, -9, 52, -8, -99,
   15, 124, 90, -80, 28, 70, 127, -91,
   -87, 23, 97, 29, 40, 53, 125, 2,
   17, 52, 97, 127, -18, 11, 25, -83,
   -71, -124, 45, -99, -57, 28, -125, -17,
   -86, -17, 125, -16, 88, 126, 14, -27,
   127, 23, 24, -54, 33, 43, -83, -128,
   -118, 105, 69, -45, 69, 35, 105, -54,
   14, -17, 41, 119, 127, 6, 48, 52,
   -30, 64, -62, 54, -24, -53, -15, -72,
   -15, -56, 83, 3, 53, -80, -122, 63,
   -24, -9, -23, 68, 93, 62, -12, -35,
   -58, 3, 50, 54, 9, -19, 9, 26,
   -95, -12, -27, -4, 51, 35, -25, 38,
   3, -72, 106, 39, 81, 31, 64, -95,
   2, 22, -36, 10, 82, -20, 3, -2,
   16, 0, -19, 0, 26, 37, -88, 63,
   18, -13, 22, 59, 12, 37, 62, 11,
   -11, 24, 59, -44, -17, -36, -17, -46,
   -11, 0, -56, -59, -49, -9, -62, 13,
   -9, 40, -16, -67, -25, -127, 19, -28,
   -60, -32, 10, -23, -90, 12, -23, -58,
   21, 11, 23, -40, 20, -3, 2, -45,
   30, -73, -20, -18, -57, 28, -37, 14,
   -44, 7, -8, 1, -67, -12, 33, 96,
   -14, -5, -16, 49, -62, -20, 23, 125,
   -11, 18, 2, -48, 58, 8, 7, -21,
   -23, 11, -127, -12, 39, -52, 3, 9,
   -20, -64, 9, -74, 18, -8, -20, -66,
   7, 13, 1, 9, 18, 73, 66, -17,
   -9, 17, 38, 59, -88, 60, 42, -23,
   24, 31, -26, -10, 42, 8, 25, 58,
   18, 55, 6, 19, -13, 11, 3, -110,
   -9, 44, -27, -9, -46, -30, 43, 46,
   -12, -11, -53, 31, 36, 34, -29, -56,
   25, -68, 35, -49, 37, 29, 60, 50,
   -40, 20, 40, -32, -21, -26, -122, -36,
   -14, 9, -24, -77, -53, 22, 20, -14,
   9, 16, 8, -75, -8, -72, 37, 54,
   3, -48, -115, -67, -63, 25, -5, -19,
   33, -18, 10, -5, -17, -15, 30, -76,
   -15, 14, 31, -77, -56, -39, -33, 20,
   27, 39, -18, -89, -52, 27, 81, 86,
   -6, -3, 15, 68, -49, 5, 7, 29,
   -37, -17, -13, 3, 0, -12, -29, -99,
   -10, -36, 25, -3, -4, 5, 12, 19,
   -50, -16, 12, -79, 26, -11, 1, 7,
   38, -6, 29, -18, 20, 36, 21, -33,
   -50, -10, 26, 59, -34, 38, 33, -34,
   57, 4, -46, -21, -1, 56, 5, 63,
   19, 39, 69, 0, -12, 3, -24, 10,
   48, 73, -4, -27, 104, -17, 64, -26,
   -26, 22, 5, 38, 45, -35, -50, -7,
   62, -64, 62, -27, 28, -39, 53, 21,
   0, -8, 23, 64, -36, -12, 62, -26,
   -43, -20, 48, 11, -14, 0, 65, -9,
   13, -34, 30, 8, -40, -41, -18, 71,
   83, 59, -7, -37, 8, 0, -7, 10,
   54, -4, -62, 58, 18, -8, 89, 0,
   -45, 99, -23, -55, 4, -12, 44, 67,
   -12, 34, -21, -128, 12, 28, -9, -82,
   0, 4, 54, 69, 0, 2, 42, -32,
   1, -61, -2, 17, 10, 3, -39, -83,
   -9, 38, 127, 28, 43, -25, 17, 7,
   -29, 42, -2, -23, 3, 13, -32, -1,
   87, -33, -8, 9, -10, 30, -18, -44,
   -16, -46, 15, 9, 20, -10, -34, -24,
   50, -27, -18, -1, -23, -50, -3, 3,
   39, -10, 52, -17, 5, -18, -37, 90,
   -36, -38, -3, -37, 52, 6, 34, -62,
   -15, -25, 67, 43, 60, -24, -53, 94,
   9, 9, 95, 119, 12, 29, -41, 12,
   39, -31, 12, 11, -46, 23, -69, 2,
   -21, 65, -14, -56, 18, -83, -95, 46,
   18, 65, 26, -35, -37, 2, -56, -20,
   -39, -111, 54, -74, -21, -59, 3, -40,
   79, 99, -52, 30, 48, -26, -5, -1,
   0, 117, -41, 20, 15, 58, 119, -10,
   14, -56, 45, 87, -12, 14, -58, -106,
   79, 2, -30, -9, 45, 11, 29, 84,
   -33, -13, 11, 34, 36, 40, -10, -102,
   2, -10, 117, 11, 44, -54, 30, -10,
   39, 33, 8, 38, 8, 14, -4, -103,
   49, 54, -33, -26, 9, 61, 27, -71,
   65, 7, 40, 13, 10, 16, -12, -25,
   49, 2, -38, 29, -34, -50, 11, -24,
   -10, -11, -32, 13, 16, -42, 26, -80,
   45, 15, 31, -27, 30, 11, -27, -31,
   -49, -68, 35, 13, 12, 41, -81, 39,
   37, 8, 58, -70, 41, 52, 43, 38,
   2, 5, 48, -17, 22, 1, 20, 4,
   -34, 127, -54, -85, -26, -13, -105, 50,
   -37, 56, 124, -8, -4, 39, -17, 0,
   32, 52, -39, 15, 45, 72, 5, -26,
   -95, 56, 29, 3, 32, 11, -72, -60,
   -40, 42, -16, -26, 74, -101, 97, -37,
   15, -54, -38, 9, -62, -19, 103, -67,
   17, 87, -8, 98, 44, 24, -17, -28,
   -15, -47, 27, 106, 99, -62, 47, 52,
   -6, -1, 52, 34, 15, -38, 23, -37,
   22, -12, 46, 10, 60, 35, -17, -76,
   26, 60, -4, 64, -2, 82, 33, -89,
   -67, 26, -14, 23, -3, 102, -2, -34,
   62, 54, -26, -1, -29, 26, 4, -22,
   33, -107, -5, 56, 44, 40, -1, -44,
   30, -108, 48, -32, 5, -54, -90, 7,
   11, -36, 24, 1, -35, 46, 12, -26,
   31, -7, 20, 100, -60, 25, 72, 2,
   -124, 14, 38, 49, 25, 48, 17, -47,
   19, 37, -3, -37, -24, -54, 30, 20,
   -38, 8, 113, 20, 28, 9, 48, 40,
   19, 43, 15, 7, -76, 4, -9, 47,
   -74, -18, 22, -26, 38, 64, -95, -94,
   10, 33, -2, -36, 63, 7, 8, 19,
   16, -66, -37, 34, -11, -4, 87, 41,
   -2, 42, 32, 45, 28, -31, -20, -108,
   31, -26, 12, 53, 15, -43, 51, -39,
   26, 19, 127, 13, 31, 41, -40, 17,
   -22, 10, 36, 10, 79, -48, -16, 34,
   -6, -7, 31, -15, -18, -6, 7, -41,
   -40, 23, 37, 0, 10, 46, 8, 9,
   5, 47, -12, 25, -26, -21, -40, -23,
   2, -110, 29, -17, 15, 69, 27, -33,
   -36, -9, -24, -11, -15, -122, 26, -43,
   -22, 17, 4, 5, -98, -62, -46, 71,
   -121, 41, -107, 115, -127, 49, 35, -63,
   34, -64, -3, -40, -61, 124, -24, -51,
   -43, -68, 13, -94, -89, -44, -75, -127,
   -7, -20, 124, -36, -36, -40, 105, 52,
   64, -88, -125, -12, -14, -127, 73, -20,
   106, 51, 112, 84, 62, 104, -71, 125,
   -87, -8, -12, 82, 111, 126, -128, 72,
   -61, -65, -68, -103, -16, -109, -84, 2,
   -60, 87, -52, 88, 29, -17, -10, 17,
   -70, -94, -128, 78, -31, -9, -64, -2,
   11, -12, -87, -26, 26, -115, 120, 17,
   -95, -6, -15, -44, -3, -72, -33, 2,
   -15, 55, 103, 25, 46, -13, -36, 16,
   -14, 127, 108, -40, -81, -43, -80, -47,
   92, 115, 42, -33, 63, -20, -91, -107,
   -23, -43, -2, -26, -58, 49, -106, -125,
   -51, -11, 45, 89, 11, 90, -13, -31,
   -34, 62, -16, 7, -90, -70, -59, -26,
   -16, 66, -22, 71, -108, 44, 44, 77,
   31, -61, -24, 61, 14, 103, -126, -56,
   28, -87, 26, 65, 71, 7, -19, -101,
   33, 97, 98, -58, -1, 10, 93, -7,
   -27, -13, -127, -47, -96, -10, 98, 64,
   127, 54, 61, 37, 74, 61, 24, 81,
   -124, -77, -2, -4, 85, 82, -128, -114,
   -44, -13, 3, -32, -102, -107, -124, 7,
   21, -5, -52, 127, 4, -85, 24, 15,
   -88, -48, -128, 87, -9, 110, -4, -29,
   24, -8, 38, -14, 0, 79, 127, 37,
   -29, -11, -50, -38, -59, 5, 35, -11,
   -76, 38, 120, 27, 51, -62, -16, 23,
   -17, 127, 127, 20, -50, -70, -54, -62,
   6, 56, 0, 38, 41, -98, -50, -90,
   -52, -4, 24, -66, 8, 34, -65, -84,
   -45, 33, 36, 109, -60, 116, 56, 41,
   -127, 11, -8, -8, -17, -71, 99, -79,
   112, -1, -19, 65, -56, 38, -109, 19,
   -62, 41, -66, -97, 83, 53, -42, -7,
   39, -79, 45, 18, -12, 7, 11, -27,
   120, 46, -43, -12, 84, 84, 78, 51,
   -75, -27, -7, -31, 4, 127, 115, 126,
   125, 10, -43, -9, 5, -69, 50, -19,
   7, 13, -31, -11, -23, -128, -74, -126,
   45, 88, 104, 31, -46, 15, -34, 78,
   98, -17, -74, 94, -33, -12, -55, 7,
   -114, -1, 99, -17, 94, 102, -86, 87,
   62, -32, 74, -13, -33, 95, 59, 21,
   -36, 74, -53, -29, -22, 63, 102, 1,
   -83, 12, -61, 37, -30, -32, -14, 14,
   -23, 127, 16, -19, 20, -49, -7, 5,
   -84, 3, 26, 72, 15, -52, 42, -6,
   -32, -4, -28, -14, 3, 15, 17, 42,
   -36, 30, 43, -63, -64, -100, 52, 36,
   -127, 34, -28, 11, 32, -2, -1, -18,
   -29, 26, 35, -2, 11, 28, -19, -111,
   9, 45, -14, -19, 77, 93, -39, 50,
   -10, 0, -26, 3, -29, 40, -72, 21,
   114, 37, -11, -87, 103, -14, 32, 19,
   78, -17, 121, 16, 48, -97, 126, 104,
   52, -48, 14, -10, -25, -73, -4, -16,
   -48, 90, -5, 54, -12, -62, -84, 43,
   -17, 33, -91, -66, -49, -20, -48, 51,
   -5, 66, -16, -123, -52, -3, -1, 52,
   9, 42, 35, 19, 23, 28, -28, -35,
   41, 24, -96, -12, 5, -126, -15, -5,
   -95, 41, -32, -27, 34, -18, 15, 61,
   24, -43, -112, -47, 27, -19, -15, -20,
   107, 103, -59, -54, 30, 14, -28, 16,
   -70, -18, 2, -34, 36, 8, 36, -47,
   18, -8, -74, -41, -49, 20, 47, -59,
   -32, -33, -56, -28, -43, 111, -43, 33,
   -10, -50, -46, 10, -43, 34, -46, 56,
   -13, -30, 109, 64, -23, -13, -55, 19,
   22, 41, 38, 31, -32, -29, 30, 32,
   -48, -53, -72, 63, 79, -29, -61, 10,
   -23, 94, -42, -83, -47, -9, -29, 3,
   -21, 5, 35, -56, -42, -91, 52, -117,
   31, 14, 60, 1, 15, -61, -12, -10,
   -23, -28, 33, -54, -71, -24, -50, -2,
   -79, 78, -13, 10, 29, -3, 110, -74,
   -49, -17, 66, 13, -23, 8, -57, -11,
   -89, -3, 14, -29, -35, 31, 55, 31,
   23, -42, 39, 7, 11, 35, 41, -82,
   -88, 41, -3, -1, 4, -73, -56, -44,
   65, 32, 15, -14, -9, -73, 10, -37,
   39, 67, 4, 28, 24, -28, -1, 19,
   -39, -11, 0, 22, -77, -91, 50, -19,
   -33, 10, 36, -29, -2, 20, -2, -48,
   -72, 68, 93, -60, -19, -45, -34, 33,
   -56, 30, -61, -12, 72, 75, 4, 29,
   -9, -33, 46, -99, 71, 0, -81, -55,
   16, 16, 107, -16, 18, 34, 37, 13,
   -62, 110, 33, 97, 65, 38, -109, -9,
   76, 66, -37, 25, 18, 33, 15, -44,
   -103, -24, -120, -65, -28, 57, -16, 21,
   -11, -128, 63, -23, -72, -34, 25, 29,
   51, 102, 91, -51, -65, -121, 26, -22,
   61, 127, 36, 29, 125, 5, 6, 43,
   -63, 77, 11, 122, -125, 26, -9, 16,
   -85, 36, -9, 20, 24, 98, 127, -44,
   22, 2, 82, 14, -1, 18, -116, -121,
   27, -50, 27, 31, -29, 6, 91, 32,
   -22, -46, 86, -36, -25, -45, -29, -113,
   51, -11, -95, -15, 18, -27, 24, 60,
   -127, -38, 71, 10, 0, 66, 25, 28,
   2, -12, 24, -17, -21, -9, -12, 34,
   -10, -9, 23, -9, -29, 15, 24, 8,
   7, 10, -8, -15, 19, 11, -4, 8,
   44, -8, 17, -1, 13, -13, -32, 35,
   32, 4, 20, 22, -3, 22, 9, 2,
   -39, 32, 3, -59, 41, 27, 11, -29,
   -18, -18, 12, 43, -3, 7, -51, -27,
   -1, -3, -22, 30, -6, 17, 46, -26,
   -122, 61, 13, -22, 23, -22, -4, -3,
   15, 87, -17, -51, 0, -46, 3, -45,
   0, 61, 11, -1, -16, -9, 4, -7,
   -88, -39, 6, 14, -13, -18, 12, 1,
   -24, 30, 54, -28, 37, 125, 9, -58,
   -14, 4, -9, 24, -18, 12, -38, 2,
   -11, 2, 13, -6, 22, -9, 12, 0,
   -10, 0, -46, 0, 2, -8, 6, -10,
   -26, -30, -13, 15, -6, -3, 26, -3,
   -81, -7, 8, 18, 22, 77, 20, 15,
   -5, 5, -25, -10, 4, 8, 26, 27,
   2, -13, 19, -10, -5, -18, -15, 12,
   8, -22, -1, 6, 11, 4, 12, -9,
   -5, -7, 16, 16, -3, -5, -3, -14,
   11, 7, 1, -15, 31, 1, -124, 8,
   4, -43, -17, 7, 16, 19, 2, 26,
   7, -11, 8, 14, 9, 23, -4, -56,
   -125, 11, -4, -8, 23, -15, 6, 11,
   -16, -12, -11, 5, -1, 3, -3, -35,
   -53, -27, 24, 114, -14, -36, -1, 2,
   4, -11, -12, -6, -19, -35, -25, 42,
   12, 6, 2, -2, -115, -6, 2, -115,
   -19, -13, -9, 24, -32, 19, 2, -29,
   -5, 4, 40, -5, -4, -6, -4, 2,
   1, 4, -3, 18, -9, 6, 1, -2,
   -7, -4, 6, -10, 1, -36, 16, -7,
   7, 2, -7, -15, -5, -1, 11, -2,
   5, 5, -5, 0, -19, -9, 0, 0,
   -6, 5, 6, 16, -5, 11, -8, -106
};

static const rnn_weight noise_gru_recurrent_weights[6912] = {
   -74, -29, 7, 24, -128, 25, 80, -20,
   13, 21, -53, -4, -21, -70, -53, 1,
   -5, -34, -22, -36, -23, 31, -126, 5,
   -51, -59, -20, -10, -83, 48, 26, -55,
   -39, -42, 52, 50, -128, -20, 21, -29,
   51, 5, 49, -126, -30, -6, 121, 4,
   -49, -31, -96, 42, 17, 25, 66, -46,
   85, -27, -42, -126, -2, -31, -25, -68,
   126, 21, -85, -78, -54, 8, 2, -23,
   -33, 125, 97, 7, -64, 124, 23, 57,
   -10, -14, 94, -69, -127, 35, 41, 103,
   1, 27, -38, 96, -54, -78, -6, -21,
   8, -61, 15, -40, -72, -30, 12, 22,
   11, 19, -8, 2, 3, -2, -15, -17,
   3, -10, 24, -62, -18, 15, -53, 2,
   21, 30, -6, -1, -25, 12, -127, -3,
   75, 33, -38, 1, 29, 8, -10, -33,
   -13, 16, -5, 8, -6, 80, -29, 72,
   43, -30, -49, 6, 126, 111, 9, -47,
   -34, 2, 20, -15, -33, 0, -8, 44,
   10, -18, -6, -118, 8, 11, -5, -15,
   37, 23, -3, -7, -20, -25, 31, 0,
   -7, -65, 21, 52, 5, -31, -13, -5,
   8, 9, -9, 13, -44, 0, 43, -1,
   -40, -48, 15, 40, -8, -46, 14, -31,
   -11, 18, 70, 0, -79, 27, 30, 32,
   -2, -46, -72, 124, -20, 47, -17, 21,
   -126, 17, 17, -22, -51, 1, -26, 18,
   37, -26, -19, -40, 48, -21, -1, -3,
   17, 86, 0, -38, -28, -24, -12, 56,
   16, -127, 61, -54, -13, 84, 33, -15,
   76, 49, -4, -10, 7, -1, -21, 33,
   -15, -96, 37, 123, -20, -9, -66, -27,
   105, 17, 6, 61, -15, 9, -85, 51,
   -41, -14, 7, 53, -36, 115, -12, -30,
   -3, -110, 104, 40, -7, -9, -51, 82,
   59, -80, 30, -2, -7, 88, 30, 54,
   95, 55, 2, 17, -29, -35, 28, 11,
   -15, -47, -6, -42, -22, 37, -123, 20,
   110, 53, -3, 11, -18, 65, -128, 52,
   -43, -89, 31, -35, -40, 44, -5, 27,
   -124, 87, -41, 33, -23, 21, -54, 54,
   -124, -34, -9, 76, 120, 3, 35, -27,
   78, 9, -125, -37, -111, 26, 127, -43,
   8, 18, 49, -30, 25, 23, -11, -20,
   105, 69, 68, 34, -36, 29, -115, 3,
   28, 67, -33, -54, -18, 50, 27, 111,
   1, -41, -5, -9, 9, -25, 27, -126,
   -21, 1, -64, 53, 19, 1, -126, -47,
   7, -2, -14, 45, 55, -89, 74, 28,
   47, 21, -45, 46, 50, -25, 122, 107,
   -34, 27, 66, -22, 33, -127, -1, 33,
   -4, 7, 126, 50, 28, -5, 43, -19,
   -20, 56, -25, -53, 19, -53, 88, -117,
   60, -43, 11, -127, 103, 72, -43, 102,
   54, 69, -16, 79, 79, 38, -7, -127,
   -14, -30, -46, 53, 67, 29, 65, 23,
   -11, -23, -24, 98, 13, -56, 57, 49,
   -21, 89, -87, -11, 77, 81, 57, 7,
   -19, -63, -125, 37, -61, -23, 33, -46,
   30, 79, -40, 20, 46, -10, -116, 90,
   -43, 62, 106, 29, -11, -45, 16, -43,
   57, -45, 88, -10, -7, 27, -5, -26,
   -13, 114, 30, 7, -30, 28, 60, 6,
   94, 17, 44, -15, 35, -10, -1, 19,
   95, 27, -51, 16, 57, -32, -61, -6,
   -58, 5, -81, -46, 90, 34, -95, 15,
   116, 21, -26, -128, 70, -31, -103, -70,
   113, 89, -38, -31, 98, -76, -12, -50,
   -40, -18, -54, 79, -15, 75, -56, -40,
   -74, 1, -112, -28, 97, -77, 5, 80,
   -83, 54, 55, -15, 35, -87, 6, -34,
   -60, 35, 38, -31, 110, 63, -46, 18,
   -16, -45, 4, 58, -49, 62, 99, 14,
   -3, -25, 2, 47, -13, -8, -128, -2,
   61, 47, 21, 89, 39, -90, -55, 30,
   -32, 56, -100, -23, 88, 46, 50, -21,
   -31, -15, 57, 126, -54, 35, -61, 8,
   13, -81, 36, -67, 41, 22, -3, 32,
   -51, 44, -8, 127, 92, -32, 79, 52,
   -125, 12, 94, 66, 26, 95, -64, 75,
   -65, -98, -52, 27, 81, -127, 9, -126,
   35, 39, -18, 59, 127, -127, 9, -127,
   9, -47, 19, -23, 27, -6, -3, -13,
   127, 0, -22, 16, -30, -6, -51, -46,
   -33, 22, -20, 44, 73, -18, 88, 67,
   -15, 6, -48, 34, 24, -51, -6, 25,
   19, 4, 38, -33, 47, -55, -45, 68,
   -86, 80, 42, -1, -75, 43, -28, 5,
   -23, -47, 39, -41, -2, -104, 42, -25,
   -20, 127, -9, 8, -11, -12, -44, 18,
   -3, 0, -1, 4, -8, -9, -8, 61,
   -1, 100, -13, 19, 10, 4, 20, 35,
   10, 22, -36, 23, -12, 31, -38, -3,
   -42, -18, 3, 34, -44, 7, 6, 3,
   -32, 7, 95, -34, -47, -21, -44, 63,
   35, 101, 127, -43, 94, -125, -5, 19,
   127, 60, -35, 1, -35, 33, 25, 33,
   -60, 16, 73, 61, 32, 14, -8, 39,
   -98, 38, -39, 91, 23, -54, -5, 38,
   -57, -126, -6, 39, 52, -47, -15, 20,
   -16, 17, 41, -26, -25, 0, 92, -27,
   15, -25, -126, 36, 124, 48, 5, 65,
   103, 25, -29, 51, -1, -3, 89, -114,
   32, 41, 19, -57, 16, -38, 124, -11,
   -94, 6, 30, -37, 104, -72, 55, -5,
   -5, -33, 12, 126, 15, -45, 4, 42,
   28, 104, -24, -79, -51, -43, 113, 1,
   -45, -22, 65, 127, 32, -7, 115, 79,
   31, 37, 94, -102, -47, 7, -116, 35,
   -39, 73, -62, 42, -89, 18, 40, 58,
   5, 18, 5, 93, 76, 8, -126, 56,
   84, 41, 87, -18, -1, 41, 9, -64,
   -57, 117, -62, 0, -85, 58, -11, 71,
   -114, 22, -2, -1, 15, 17, -85, 24,
   13, 23, 52, -125, 127, 38, 31, -128,
   45, 2, -29, 9, 104, 28, -128, -126,
   -89, -33, -12, -46, 127, 28, -40, -86,
   41, -9, -74, -10, -71, -23, -22, 9,
   -10, 20, 5, 0, -127, -78, -104, 63,
   -27, -3, -21, 51, 16, 0, 70, 31,
   -128, -5, 127, -26, 50, 68, 126, 57,
   -60, -17, 4, 10, 17, 127, 36, -128,
   -22, 71, 32, 108, -68, -12, 38, 37,
   -33, -4, 126, 38, -8, 40, -23, -32,
   -68, 88, -120, 42, -79, 127, 83, -70,
   -76, -8, 103, 94, -10, 16, 59, -127,
   14, -91, 47, -20, -25, -119, -12, 96,
   -33, 111, 13, 6, 4, 4, -5, 89,
   51, 1, -29, -12, -76, -11, -117, 17,
   -22, 110, 27, -77, -72, 84, 40, -40,
   -95, -94, 0, -27, 61, -128, -44, -47,
   -7, 12, -73, -101, -5, 1, 83, 127,
   70, -17, 126, 0, 127, -42, -8, -39,
   5, -44, 125, -46, -60, -93, 64, 123,
   -42, -54, 39, -12, 4, 32, -127, -24,
   -60, -37, -113, -49, -53, 64, 54, 99,
   56, -56, -49, 14, -19, 59, -38, 1,
   -37, 6, 0, -95, 53, 4, -40, 127,
   -11, 54, 24, 53, 127, -29, -54, -114,
   -127, -115, -108, -21, 11, 1, -23, -23,
   7, 14, 124, 27, 46, -8, -45, 72,
   -37, -58, 45, 61, 8, -114, -5, 7,
   54, 1, 80, -9, -93, 24, -8, 26,
   101, 113, 55, 32, 117, 20, 52, -35,
   -2, -81, -127, 1, 12, -55, -29, -27,
   -26, -108, -33, 99, -10, 38, -57, 59,
   35, 54, 20, -15, -66, -103, -101, -32,
   25, -4, -12, -42, 8, 29, 38, 0,
   24, -85, 25, -10, 32, -57, -42, -16,
   -32, -79, -78, 38, 127, -45, 18, 86,
   -122, -83, -127, -82, 2, -128, 34, 75,
   120, -95, 14, -11, -25, 19, -17, -58,
   30, -18, -64, 33, -93, 71, -17, -63,
   -60, -30, 46, 112, -75, -6, 36, -127,
   -51, -77, 52, -66, 62, 18, 16, -46,
   -1, 1, 15, -67, 119, 40, 95, -34,
   -126, 115, 49, -63, 13, 79, -44, 104,
   -47, -37, 31, 30, -60, 84, -77, -20,
   -40, 109, 93, -45, -98, 126, -39, -49,
   127, 73, 31, 0, -15, 52, 95, -25,
   -53, -43, -8, 60, -126, 104, -122, -36,
   15, 43, -23, -114, 68, -63, -64, -22,
   56, 33, -14, -16, -60, 22, -15, -14,
   -66, -42, 49, 37, 14, -1, -10, -49,
   82, -35, 8, -47, -56, 55, -113, 37,
   -56, -13, 9, -25, 29, 21, -127, 76,
   -96, 22, -108, -15, -39, 16, 2, 32,
   29, -37, 95, -77, 21, -17, 29, 5,
   47, -126, 61, 32, 33, -16, -59, 17,
   -127, 16, -91, -56, -127, 0, 0, 89,
   -18, -78, -59, -40, -9, 107, -40, 34,
   120, -65, 35, -75, 21, 49, 25, -75,
   61, -30, 26, 1, -75, -56, -128, -67,
   36, -4, 43, -92, 12, 97, 66, 69,
   12, 70, -24, 2, 115, 15, 37, 77,
   10, -96, 13, -68, -63, 41, -18, 10,
   -69, 14, -31, 5, 24, -92, 39, -10,
   92, 67, -82, -78, 24, 75, -84, -1,
   60, -49, 114, -27, 68, 127, -128, -125,
   41, -5, 14, -81, 33, -57, -122, 35,
   47, 102, -62, -55, -9, 60, 15, -109,
   1, -17, 115, 9, -19, 40, -38, -13,
   79, -28, -18, 51, -99, 89, -1, -29,
   17, -26, -38, 10, -25, -28, -115, 2,
   -37, -125, -2, 0, 51, 21, -37, 77,
   -47, -46, -2, 99, 126, 8, 50, -42,
   10, -45, 13, -90, 61, -28, -55, -112,
   -107, 67, 112, -8, -84, -6, -47, -51,
   -11, -97, -50, -48, 48, 90, 55, -35,
   39, -33, 67, 31, 35, -48, -88, 1,
   -75, -64, 11, -13, -43, -92, -41, 33,
   -80, 10, -64, 127, 15, 47, 45, -7,
   -83, -24, 14, 97, 33, -128, -57, 64,
   49, -28, -128, -10, -8, 14, 24, 83,
   -6, 15, 24, -127, 40, -14, 91, 84,
   13, -36, 53, -13, -15, 77, -21, 36,
   29, -1, -40, 33, -44, 24, -41, 32,
   17, -51, -40, -78, -13, -35, 4, 68,
   -16, -77, 42, -33, 127, 52, 31, -54,
   55, 11, 27, -40, 125, -15, -50, 30,
   -50, 78, 56, -86, -71, 54, 45, 75,
   -30, -14, 58, -31, 70, 29, -128, 20,
   52, -13, -38, 7, -128, 126, -25, -4,
   -2, 4, -85, 127, -46, -21, 50, 67,
   -31, 0, 73, 66, -126, 33, 8, -71,
   59, -26, -69, -117, -28, 99, 4, 15,
   -12, -43, 2, 2, 88, -19, 31, -73,
   -118, -18, -61, 110, 39, 122, 34, 71,
   -123, 14, 76, -59, -17, -39, 14, 52,
   107, -19, -68, 3, 125, 27, -26, -56,
   27, -94, -10, 20, 125, -124, 2, 2,
   68, -128, -7, 15, 62, -121, 43, 72,
   -5, 49, -47, -90, -30, -126, 46, 14,
   -66, -19, 44, -47, -26, 17, 91, -93,
   51, -16, -18, -16, 49, 126, 19, 20,
   99, -38, -6, 103, 99, -28, 31, -47,
   -20, 33, -77, -44, -26, 64, -53, -44,
   -19, -21, 59, 8, 116, 5, -72, -18,
   -2, 10, 21, -10, 91, 10, 35, -40,
   6, -97, -100, 37, -22, -3, -48, -14,
   22, -87, -38, 19, 50, -63, -117, 80,
   3, -69, 19, -49, 17, -6, -10, -28,
   9, -90, -32, -12, -14, -49, -38, 11,
   -18, -105, -128, 68, 5, 105, -6, 73,
   29, -11, -78, 40, -1, -64, -110, 3,
   -29, -1, 30, -3, -61, 124, -3, -55,
   69, -42, -9, 6, 19, 48, -36, -46,
   34, -22, 16, -73, 34, 3, 0, 18,
   -128, -61, -27, -12, 15, -48, 58, -3,
   -101, -98, 79, 76, -71, 16, -30, 42,
   52, -51, 61, 44, 19, 43, 76, -46,
   38, -47, 72, -45, 21, -28, 15, -36,
   30, -34, 34, 52, -25, 22, -31, -25,
   4, -25, 31, -112, 16, -21, 11, -100,
   30, -31, 126, -23, 19, 127, 30, 65,
   -20, -1, -15, 3, 96, 93, 60, -63,
   6, -10, 125, 81, -37, 14, -52, 43,
   -3, 6, -33, 14, 7, -28, -55, 29,
   13, 21, 68, 42, 47, 60, 82, 95,
   60, -34, -46, 40, -46, -5, -13, 96,
   9, 45, 86, -89, 27, -19, 75, 39,
   52, 95, 57, -5, 46, 124, -2, 5,
   -50, 37, -24, -20, 11, 35, -18, 30,
   14, -5, 46, -10, 61, -7, 37, -42,
   -30, 11, 29, 13, 27, 74, 32, 60,
   -34, -2, 36, 72, -3, 27, -30, -115,
   -58, 22, 55, 57, -57, -120, -55, -98,
   17, -21, 39, -22, 92, 127, 31, 42,
   48, 29, 43, 53, 39, -1, 68, 8,
   -105, 6, 6, 22, -15, -80, 92, 42,
   10, 59, -81, -22, -21, -127, -53, 16,
   127, 71, -103, 23, 127, 118, -16, -10,
   30, 17, -70, 45, 58, 29, -18, 78,
   74, 56, 8, 72, -73, -20, 127, -30,
   -7, 0, 18, -27, -117, -64, -18, 7,
   118, 95, 127, 47, 114, 107, 65, 90,
   6, 11, -19, 90, 53, 80, -79, 0,
   -41, 70, -11, 77, 105, -59, 7, -26,
   -49, 78, 19, 28, -35, 35, -21, 40,
   69, -127, -7, 64, -35, -76, 71, -82,
   11, 25, 79, -107, -53, -127, 69, 26,
   56, -1, -4, 6, -71, 32, -30, -40,
   -53, 24, -44, 13, 51, -24, -64, -86,
   -53, 3, -49, -33, -24, -26, 14, 40,
   -11, -16, 61, 9, -12, 21, -83, -32,
   -118, 88, -49, -41, -17, -29, 10, -20,
   39, -52, 40, 35, -47, 68, -54, 9,
   -32, 45, -77, -44, 62, 23, -30, 18,
   -38, -65, 42, 15, -13, 15, 48, -12,
   -79, -50, 51, 103, 97, -12, 70, -21,
   -30, -97, -43, 14, 0, -49, 20, -59,
   31, 44, 49, 33, 54, -23, -25, -12,
   1, -47, 2, -3, -15, 25, -127, 11,
   4, -64, 107, 31, -9, -76, -17, -30,
   51, -38, -104, -3, -5, -31, 27, 48,
   -120, -48, -11, 38, -117, 32, -32, -12,
   91, 45, -49, 45, 47, -22, -21, -76,
   -127, -28, 12, 126, 9, 62, -25, -19,
   -74, 56, -60, 12, -59, -7, 17, 54,
   -20, -68, -23, 59, -27, 34, -12, -75,
   -44, -84, -29, 11, -86, 36, -11, 127,
   81, -36, 19, 21, 90, -6, -92, 50,
   70, -27, -6, 41, 15, -121, 124, -127,
   75, -126, -63, -126, 43, -30, 90, 93,
   -56, -68, -25, 115, 7, -91, 124, 114,
   72, 51, -102, 68, -102, 127, 112, -22,
   121, -3, -127, 109, 127, -9, 21, -128,
   98, 13, -12, -89, 90, 108, -19, -30,
   32, -2, -49, 65, -9, -93, 98, -11,
   -78, -121, 127, 56, 53, 94, -122, -5,
   43, -20, 10, 36, -49, -5, 79, -20,
   -81, 77, -4, -23, 65, 93, -63, 81,
   34, 80, -58, 71, 35, 40, 83, 67,
   -2, -36, 38, -80, 125, 5, 81, 28,
   -80, 11, 68, 26, 33, 44, 58, 74,
   17, 15, 127, 24, 51, 32, 34, -4,
   -7, 7, -2, -24, 125, 27, -14, 44,
   65, 9, -41, -19, -58, 35, 61, -42,
   127, -52, 16, 4, -15, -17, -53, -11,
   -66, -29, 44, -57, 5, 51, 9, 74,
   45, -35, 8, -128, 48, 127, -28, -49,
   17, 37, 117, -110, 19, 102, 40, -84,
   30, -125, -76, -32, -28, 45, 80, 18,
   75, -44, -87, -62, 48, 13, 83, 114,
   -64, -127, 56, 56, 57, 36, 30, 54,
   -99, 15, 30, -112, -22, -37, 40, 122,
   -22, -32, -13, -46, 42, -45, -49, -20,
   -76, 59, 112, 42, 2, 7, 46, 62,
   115, 94, -10, 81, 10, -18, -128, 87,
   -39, 88, -23, -15, -84, 43, 43, -6,
   3, -32, 59, -11, 7, -41, -73, -106,
   -111, -123, -8, 15, 93, 26, 90, 53,
   -23, 67, 56, 23, 127, 24, -52, 90,
   -53, 50, 55, -18, -85, -127, 28, 121,
   25, -65, 63, -17, 10, 96, -96, -51,
   -49, 63, -83, 11, 33, 7, 16, -51,
   14, 52, -34, 21, -125, 127, 95, -14,
   6, -15, -117, 5, 45, -111, 1, -75,
   16, -17, 35, 101, 85, 82, 52, 89,
   43, -3, 48, -23, -25, 82, 12, 42,
   -43, -50, 73, -109, 20, 126, -127, -18,
   -70, -20, -31, -81, -87, -128, -125, -8,
   -127, 118, -125, -36, -43, 29, -3, -16,
   31, -30, 33, -128, 46, 8, 43, -49,
   43, 46, -123, -19, 127, -7, 2, -66,
   62, -3, 79, -17, 8, 15, 47, -22,
   32, 62, -2, -22, -7, -10, 6, 5,
   37, -52, 27, -82, 12, 70, -11, -10,
   -27, -95, -34, 79, -7, -38, 27, -90,
   -68, 18, 64, 44, 61, -3, 100, 127,
   -3, 9, -71, -55, -9, -69, 0, -5,
   -11, -36, -120, 8, 125, -53, 31, 61,
   14, -28, 10, -26, -68, 121, 26, 68,
   35, 44, 127, 48, -90, 55, 28, 7,
   -12, -32, -105, -30, -83, 119, -9, -16,
   13, -19, 23, 23, 38, -109, -34, -1,
   34, 23, -80, -5, 126, 127, -58, -44,
   -36, -77, -5, 18, -27, 78, 13, 38,
   44, -6, -37, -49, -4, -4, 11, -8,
   8, -38, -2, 29, -31, -65, 35, -40,
   -14, -29, -93, -127, 34, 11, 46, 107,
   -110, 13, -95, -26, -36, -116, -8, -16,
   -9, -28, -24, -9, -22, -10, -41, -51,
   -3, 68, -13, -34, 23, -20, -112, 13,
   -94, -12, -5, -15, -45, 30, -42, -23,
   -14, -47, 8, 20, -52, -4, 27, -34,
   -4, -38, -34, -45, -10, -34, 87, 2,
   116, 111, -61, 50, -128, 34, -10, -12,
   2, -29, -15, 80, 35, -27, 44, 15,
   -52, 51, -28, -126, 1, -4, -49, 20,
   -126, 22, -58, 5, -23, 11, -22, -12,
   -10, 25, 13, 39, 40, -6, 25, -10,
   -15, -55, 29, -6, -39, 8, 23, 68,
   -11, -59, 82, 0, 127, -13, 5, 7,
   21, 2, -13, -18, 5, 11, 51, -32,
   37, -37, 15, -128, 2, 8, 12, 8,
   126, 25, -37, -19, 5, 8, 38, -34,
   53, 12, 6, -32, -35, 15, 21, 3,
   25, -4, -11, -60, 22, 109, -25, 12,
   -6, 4, 20, 66, -33, 11, 36, 76,
   9, 9, 2, 3, 42, -11, -61, 20,
   -4, -4, 107, 14, -80, -115, -58, -83,
   -21, -84, -93, 36, 5, -41, -5, -89,
   -15, -28, -13, 6, 35, 33, 46, -33,
   51, 58, -75, 19, 11, -128, -65, 75,
   46, -16, 110, 60, 9, 51, -128, -31,
   -125, -26, -23, -23, -35, -26, 19, -55,
   -126, -62, -29, -56, -9, -22, 10, -34,
   68, 25, -60, -82, -58, -49, 4, 11,
   -127, -34, -51, -127, -23, -49, -6, -23,
   -11, 35, -1, 10, -86, -75, 59, 68,
   46, -13, -9, -88, 14, 1, -128, 51,
   80, -3, -99, 66, 10, 127, 127, -88,
   -34, -67, -127, -18, 73, -15, -13, -1,
   11, 36, -44, -103, -40, -2, 17, 47,
   -128, -27, -78, -103, -22, 83, 70, 43,
   46, -49, 74, 83, 60, -127, -20, 38,
   109, 61, 33, 5, 68, 125, -28, 6,
   68, -48, -30, 56, 126, 31, 23, 11,
   -23, -31, 127, 1, -28, 121, 56, -11,
   -30, 12, 69, 76, -72, -33, 123, 110,
   9, 70, 62, 123, 87, 75, 48, 5,
   -10, 9, -17, 67, -39, -84, -20, -34,
   36, 75, 9, 57, 32, -29, 6, -95,
   35, -40, 83, 86, -22, 127, -15, -108,
   -5, -19, -127, -9, -79, 102, 53, -50,
   -19, -27, -8, -4, 12, -19, 78, 12,
   -15, -27, -57, -53, 12, 5, 7, 56,
   39, 102, 21, -14, -34, -36, 9, -54,
   -47, 34, 107, -4, -24, -42, -22, -35,
   -101, -41, -26, 30, -87, -90, 22, 125,
   42, 12, 49, -73, 74, -1, 14, -23,
   69, -59, -102, -10, 82, -63, -118, 121,
   -115, 56, -1, 12, 76, -34, -26, 52,
   -32, -30, 8, 19, 40, 1, 10, -9,
   7, 5, -17, 11, 104, 38, -11, -16,
   -18, 51, 2, 31, 23, 35, 64, -24,
   -12, 15, 18, 124, -3, 58, 49, 9,
   -4, 41, 56, -1, -27, -43, -85, -62,
   0, 1, -53, -49, 37, -5, 66, 32,
   26, -4, 42, 14, 43, -48, 20, 61,
   32, -63, -48, 37, 119, -36, -128, -45,
   -48, -63, 53, -94, 52, 32, 25, -30,
   39, 27, 15, -4, 1, 101, -24, -85,
   21, 11, 25, 22, 45, -99, -16, 41,
   -61, -64, 49, 5, -98, 28, 18, -1,
   19, 1, 15, -49, 8, -24, -15, 105,
   -45, -2, -114, 5, 31, -11, -111, -10,
   34, -43, 11, -116, 6, -42, 26, -26,
   -28, 22, -127, 0, 70, -89, 47, 48,
   5, 36, 1, 11, -53, -24, 29, -2,
   -19, 51, -46, -23, 59, -5, 73, 38,
   -30, -23, -10, -13, -86, -58, 14, -58,
   6, -33, 61, 29, -38, 2, -112, 15,
   -36, 32, -54, 1, 31, 80, -17, -50,
   -1, -17, 29, -77, 7, 8, 24, -44,
   -2, -37, -2, -121, 39, -50, -45, -19,
   37, -122, -5, -16, 7, -10, -34, 14,
   -127, 3, -127, 54, 67, -55, -2, 18,
   -19, 18, 126, 51, -128, 2, -81, -79,
   -50, 5, 127, -67, -38, -47, 53, -18,
   69, -126, -19, 22, 24, 103, -97, -126,
   -22, -110, 16, 5, -14, 8, 62, 17,
   81, -16, 31, -88, -128, 75, 22, -51,
   -114, 19, 31, -43, 39, 30, -5, 35,
   115, -5, 65, 2, -13, -8, -126, -98,
   -99, -49, -20, -58, -36, -121, 122, 72,
